651 100
indigenous -0.028696423 0.20208815 -0.013475415 0.12500134 -0.06725757 -0.018817363 -0.23021118 -0.20953663 0.13168833 0.13558885 -0.05127547 -0.049253345 0.02088801 -0.043157842 -0.15622546 0.16440678 -0.00677364 -0.086165786 -0.1326173 0.38138157 0.085363954 -0.31283662 0.025651881 0.120393865 0.11502469 0.03251248 0.23514625 0.02073879 0.0048136064 0.00918288 0.12511906 -0.028840307 -0.0408491 -0.0007341321 0.25525653 0.14702378 0.11296442 0.07741976 -0.23316914 -0.22734936 -0.07835774 -0.03076787 -0.01287003 0.03491852 -0.3493125 0.107196294 0.15293412 -0.09524028 0.0037083027 -0.20113352 -0.11214808 -0.11752586 -0.18278416 -0.15716806 0.07035937 -0.09844436 -0.065262765 0.08287733 -0.31573215 0.23587957 -0.052903768 -0.2973334 -0.03571092 0.31497338 0.04931534 0.0017456271 0.028142765 -0.016883934 0.006060469 -0.044756662 -0.08248428 -0.028478421 -0.08346995 0.021152653 0.06464877 0.24178734 -0.08886044 -0.018215198 -0.011684446 -0.01016578 0.25321588 -0.26885316 0.028585106 -0.06679128 -0.039485887 0.01548357 -0.023647346 -0.036820725 -0.07489118 -0.09714763 0.047350552 -0.054417294 0.15269001 0.006311228 0.20796376 -0.13271566 -0.04957857 -0.13458513 0.17676483 -0.13060056
aboriginal -0.021749366 0.19271046 -0.023759713 0.117714055 -0.060256224 -0.019467598 -0.2212491 -0.18805349 0.12583968 0.12939297 -0.045862697 -0.045575056 0.016811593 -0.046835523 -0.14763549 0.15296751 -0.01587834 -0.087530166 -0.11864157 0.35653916 0.08418932 -0.2875116 0.027530596 0.109847724 0.11331037 0.020157132 0.22628097 0.025372121 0.008278417 0.015729193 0.11333004 -0.021368466 -0.033161376 -0.0027901314 0.23112622 0.134861 0.10476881 0.06901907 -0.22730428 -0.21607742 -0.07528939 -0.037808627 -0.011642215 0.03762 -0.32901233 0.0999579 0.14804953 -0.08534127 0.011067643 -0.18026085 -0.107422754 -0.109195665 -0.17662622 -0.14974551 0.060454607 -0.09406793 -0.06497895 0.08380786 -0.30048764 0.21813759 -0.05771502 -0.28075266 -0.041703552 0.3019663 0.057595454 -0.008024189 0.02935157 -0.015315339 0.0035209984 -0.0470244 -0.08951575 -0.023165885 -0.07672765 0.020480141 0.05809924 0.22724192 -0.088256136 -0.009615975 -0.013314212 -0.005152125 0.23815003 -0.24772476 0.023748225 -0.05431388 -0.02673895 0.015125994 -0.015206136 -0.03440809 -0.065241314 -0.08973062 0.03940767 -0.056239225 0.14590591 0.009902014 0.19440305 -0.12198811 -0.043599598 -0.1259524 0.1633219 -0.12381246
community -0.032463245 0.20570922 -0.0155623695 0.12285946 -0.05655661 -0.021239024 -0.23983611 -0.20887223 0.13617599 0.1375681 -0.046368156 -0.049146827 0.023952732 -0.04554046 -0.15483412 0.1601094 -0.007799854 -0.084338486 -0.12580113 0.37675828 0.08400041 -0.31705484 0.029078603 0.11861276 0.12429878 0.029229973 0.23892285 0.0206347 0.008832105 0.008565945 0.1266372 -0.030027974 -0.037586242 0.0005401111 0.25784326 0.15528773 0.108796895 0.07782609 -0.24536452 -0.2346577 -0.08232118 -0.034825046 -0.016645929 0.040515576 -0.35470825 0.106813796 0.15499085 -0.092072114 0.005856247 -0.20125937 -0.11530083 -0.119528085 -0.19272916 -0.1558082 0.066139504 -0.099730134 -0.06632866 0.08571824 -0.3141076 0.2350945 -0.053954557 -0.30331072 -0.036173772 0.32455453 0.056660153 -0.00027235964 0.026406024 -0.0146615 0.0029479105 -0.04765368 -0.09257319 -0.028420651 -0.08236658 0.017605765 0.06952049 0.24487977 -0.08553251 -0.0111072445 -0.018347032 -0.01676731 0.2583414 -0.2709045 0.027631471 -0.06559054 -0.029057574 0.021818941 -0.030497927 -0.03181003 -0.06754006 -0.09670493 0.046959303 -0.054964673 0.15571952 0.012527412 0.2059346 -0.1408621 -0.05061331 -0.1378215 0.18121596 -0.13646916
australian -0.02640272 0.20178744 -0.013784041 0.1163588 -0.059825834 -0.016232558 -0.23179528 -0.19884178 0.12597087 0.13556783 -0.04611415 -0.04822251 0.025375064 -0.046890218 -0.14816776 0.16445059 -0.010197662 -0.088150024 -0.12300854 0.37488148 0.08522609 -0.30761564 0.026795559 0.11979163 0.11696005 0.023720657 0.23630828 0.02300612 0.006896881 0.012435634 0.11785971 -0.024417989 -0.037754375 -0.008781114 0.24220444 0.14576267 0.104638964 0.07211051 -0.23534785 -0.22937478 -0.07833688 -0.038452502 -0.01669674 0.034497514 -0.33398652 0.10710177 0.14693284 -0.093612306 0.0032393434 -0.19295481 -0.112863675 -0.117568076 -0.18672054 -0.15664417 0.06722961 -0.09624979 -0.06548738 0.08461177 -0.30426237 0.22757924 -0.04928051 -0.29621908 -0.03837671 0.31191844 0.05778509 -0.008345182 0.02818636 -0.01679426 0.00799813 -0.049901348 -0.08632484 -0.029858816 -0.0819024 0.017144721 0.06621235 0.2399614 -0.09195387 -0.010164988 -0.018569315 -0.01516529 0.24741091 -0.25449255 0.018448168 -0.05998636 -0.038354103 0.012396419 -0.020596808 -0.034983132 -0.06790498 -0.09622793 0.03852465 -0.055910327 0.15016711 0.013772134 0.20466143 -0.13007855 -0.04678075 -0.13188712 0.17052302 -0.13649537
people -0.030258195 0.19227363 -0.022212291 0.122160204 -0.062189046 -0.013065024 -0.23060738 -0.20000273 0.12501831 0.13121995 -0.049811143 -0.047976997 0.017615862 -0.04528509 -0.14394216 0.15092058 -0.01190699 -0.08573983 -0.120835975 0.36620528 0.08133192 -0.29659313 0.034162316 0.11616786 0.10951643 0.021047065 0.22748965 0.022209037 0.009410507 0.015096266 0.12082787 -0.01852295 -0.0369275 -0.0076607303 0.23808032 0.13946298 0.111636266 0.075848304 -0.23320761 -0.2227934 -0.072285615 -0.03822482 -0.009584441 0.02912209 -0.3363072 0.10580181 0.14762896 -0.084159665 0.0033668864 -0.19278285 -0.112193346 -0.111226186 -0.17750247 -0.15093085 0.059769582 -0.09598646 -0.06313557 0.08279263 -0.3088801 0.21939577 -0.05470336 -0.29073757 -0.036905795 0.31131458 0.054044206 -0.0076745334 0.027704466 -0.014861557 0.0105542885 -0.04776828 -0.086233914 -0.028380716 -0.07826784 0.022777192 0.06213276 0.23639926 -0.08665659 -0.01251563 -0.011738292 -0.009505252 0.23715903 -0.25964168 0.017238734 -0.055954468 -0.039627183 0.019867683 -0.018443288 -0.029648833 -0.06990011 -0.0935038 0.042280894 -0.060431477 0.14521542 0.0074172495 0.19539075 -0.12783898 -0.044445034 -0.13220103 0.17251073 -0.1326649
report -0.034244563 0.20068425 -0.020263677 0.12407404 -0.060080197 -0.016348856 -0.24025384 -0.20963211 0.13738291 0.14226763 -0.046709146 -0.049160298 0.030125454 -0.045831654 -0.15521698 0.15932505 -0.0116274515 -0.08801983 -0.13119033 0.38537112 0.08099674 -0.31884903 0.03471982 0.12134361 0.11608133 0.023772553 0.23831606 0.021072611 -0.0003560458 0.0149012245 0.13080527 -0.032215435 -0.03938133 -0.004971668 0.26009092 0.15511487 0.10875294 0.07488028 -0.23944324 -0.23211628 -0.08263778 -0.037561122 -0.018432934 0.036131304 -0.35180625 0.10618707 0.1594122 -0.09742882 0.009039133 -0.20289421 -0.10887095 -0.11800258 -0.19130781 -0.15845682 0.07236449 -0.09761543 -0.059856307 0.083428405 -0.31551015 0.23936678 -0.053649765 -0.3009563 -0.04344316 0.31735185 0.04999748 -0.0025907857 0.028421706 -0.017638385 0.008145388 -0.042236645 -0.08588624 -0.028685534 -0.07673777 0.013968441 0.07304707 0.24856423 -0.08499641 -0.014917683 -0.01933122 -0.014142399 0.2603654 -0.26537594 0.029244056 -0.06575166 -0.03803942 0.021014236 -0.031580593 -0.031759355 -0.06897833 -0.09239396 0.04451328 -0.05155799 0.15156375 0.009512769 0.2082099 -0.13618311 -0.05089207 -0.13982436 0.17496976 -0.13450815
australia -0.025050053 0.19967291 -0.019573655 0.12125791 -0.05615351 -0.022515094 -0.22870229 -0.19430257 0.12672982 0.12824498 -0.04688524 -0.05029873 0.01941156 -0.045385614 -0.14560464 0.15095384 -0.006713305 -0.08309145 -0.12353604 0.37118116 0.078496024 -0.30350062 0.029053584 0.10938465 0.115511306 0.028210321 0.22798304 0.023498455 0.0064691566 0.009959379 0.12049509 -0.02120088 -0.038813237 -0.0019568456 0.24412635 0.14271167 0.11193506 0.07124874 -0.2302275 -0.2266562 -0.07639677 -0.03532787 -0.012579005 0.034259457 -0.33768183 0.10455374 0.14469421 -0.08646417 0.0013242027 -0.18769504 -0.10598588 -0.113158 -0.17968588 -0.15097849 0.059398364 -0.09319609 -0.06633218 0.07699468 -0.30398712 0.22817492 -0.051288072 -0.2900688 -0.04280551 0.31328642 0.051721595 -0.0016133235 0.024631308 -0.020207576 0.007351354 -0.048202366 -0.087547086 -0.02409655 -0.07514787 0.025417568 0.07150448 0.23442903 -0.08688813 -0.015780272 -0.013863596 -0.013977757 0.24437717 -0.26108828 0.026243584 -0.061198488 -0.038701802 0.017244816 -0.02557795 -0.03581881 -0.06890554 -0.08667119 0.037455413 -0.05430335 0.14943667 0.016017282 0.2030028 -0.13441142 -0.041943654 -0.13040419 0.16755947 -0.1322088
torres -0.027198358 0.18063918 -0.02628427 0.10793211 -0.05108687 -0.018320056 -0.21095031 -0.17339689 0.11197196 0.12201735 -0.04266472 -0.036094896 0.018940546 -0.04485291 -0.13952631 0.13725032 -0.017943945 -0.07733978 -0.10840405 0.33785424 0.072686374 -0.2691054 0.02853617 0.099846415 0.10146195 0.02034746 0.20519978 0.023159115 0.002886357 0.017951211 0.10977264 -0.015664477 -0.027173884 -0.011423197 0.21891251 0.1265986 0.09303142 0.06205162 -0.20940763 -0.20404468 -0.072549745 -0.0360597 -0.014405388 0.02745108 -0.302536 0.09220387 0.13420826 -0.08609701 0.0049917884 -0.17048842 -0.10716558 -0.096784964 -0.16593526 -0.14433226 0.060625803 -0.085607655 -0.056318223 0.076529324 -0.2796955 0.20587274 -0.047019705 -0.26479873 -0.042050857 0.2906452 0.05536424 -0.009742396 0.023555348 -0.012165041 0.0057223546 -0.04743574 -0.08678301 -0.022109047 -0.06768972 0.012343061 0.0636051 0.20872179 -0.08665824 -0.0083380705 -0.0074816654 -0.00023941412 0.22883019 -0.23503327 0.01886953 -0.049542993 -0.022010537 0.016985988 -0.017285306 -0.03315592 -0.052865792 -0.079214215 0.041834824 -0.04814598 0.13779567 0.0036287687 0.18374635 -0.11815854 -0.045823224 -0.12693624 0.14866787 -0.113979965
strait -0.02938361 0.18551892 -0.02152998 0.111099645 -0.06284498 -0.012814977 -0.21204485 -0.1760664 0.1078659 0.12631191 -0.03446323 -0.04006007 0.0137474 -0.03667102 -0.13187468 0.13778101 -0.017819928 -0.08247043 -0.10828845 0.34181535 0.077529676 -0.28197756 0.034888703 0.10860912 0.10928428 0.023279117 0.20908643 0.027180042 0.009037608 0.020786962 0.11718705 -0.017670996 -0.030869156 -0.002520049 0.2232984 0.12751545 0.10411673 0.070406914 -0.2106936 -0.20776781 -0.063564345 -0.032453105 -0.02110948 0.033434067 -0.31265205 0.09797287 0.12865165 -0.08601776 0.007838326 -0.17764008 -0.11089026 -0.10452051 -0.17569467 -0.1447223 0.059043374 -0.08647004 -0.060301453 0.07238784 -0.2738439 0.20936342 -0.053448454 -0.2662274 -0.035229515 0.29786694 0.05282617 -0.004632195 0.018454611 -0.013103466 0.0025506448 -0.039487597 -0.08351628 -0.02834957 -0.06763552 0.010212107 0.06255002 0.21234508 -0.08514999 -0.011623745 -0.011153815 -0.0034482542 0.22419752 -0.24006027 0.007812614 -0.051411062 -0.028746441 0.014100158 -0.010063618 -0.02814496 -0.059716914 -0.08682613 0.03405207 -0.050157253 0.13455342 0.0039286218 0.1847425 -0.121844284 -0.046884406 -0.12340008 0.14663799 -0.115410335
islander -0.020054454 0.18020073 -0.019831382 0.1134129 -0.0565371 -0.01135497 -0.20390096 -0.17708878 0.10718877 0.11820816 -0.03442353 -0.043742865 0.01942691 -0.04099152 -0.13542786 0.13528742 -0.02022593 -0.0782645 -0.10860906 0.33303016 0.07859383 -0.26264304 0.03260362 0.097507216 0.10165024 0.024372617 0.20386048 0.018524634 0.010317988 0.014716282 0.10345503 -0.021758657 -0.023483874 -0.007908667 0.210597 0.13247344 0.09489907 0.06262575 -0.21243791 -0.20117226 -0.065167256 -0.031568382 -0.017135514 0.036777977 -0.2964196 0.086507924 0.12366696 -0.082741834 0.008156839 -0.16885892 -0.102354765 -0.104589544 -0.16182159 -0.14480667 0.0646178 -0.08908308 -0.05881141 0.07920586 -0.27023622 0.20524704 -0.050850306 -0.25857347 -0.038879916 0.28537163 0.053895097 -0.011197352 0.022684783 -0.011475835 0.011323488 -0.040585943 -0.08168745 -0.020291299 -0.06646303 0.011866894 0.05338405 0.20882364 -0.07473801 -0.0075900373 -0.0059530144 -0.0038241283 0.21141334 -0.22708496 0.018613886 -0.05608353 -0.032867018 0.01883124 -0.0076350677 -0.022731973 -0.055422027 -0.07843466 0.037262935 -0.053991232 0.13419946 0.008106748 0.18263519 -0.11149261 -0.045615744 -0.120738335 0.14384332 -0.11028157
policy -0.031694215 0.20805316 -0.023815015 0.1189163 -0.05696946 -0.016512759 -0.23802812 -0.21026996 0.13995878 0.13502374 -0.053652562 -0.046698976 0.023950122 -0.046278026 -0.15017512 0.16539723 -0.011229123 -0.09353706 -0.1307604 0.38521647 0.088918686 -0.31580517 0.028433278 0.11586054 0.124174476 0.032208517 0.24290252 0.025450708 0.0002461138 0.006209826 0.12684701 -0.02270002 -0.03919215 -0.008363901 0.25272754 0.14747299 0.115364864 0.080646455 -0.23976852 -0.23899287 -0.07882327 -0.033041254 -0.009528327 0.03137771 -0.35072213 0.111451454 0.15837757 -0.09771832 0.0042907535 -0.20104864 -0.108353294 -0.11904813 -0.18958232 -0.15947613 0.06411878 -0.09648177 -0.06835236 0.08170923 -0.32575348 0.23685002 -0.057406563 -0.30104217 -0.036385152 0.3275307 0.049988747 -0.0067463843 0.030512078 -0.018761586 0.007997497 -0.05139674 -0.093142726 -0.030420948 -0.084735 0.01776971 0.071350165 0.24324983 -0.08824239 -0.0089751985 -0.015632084 -0.012133152 0.25173435 -0.26951638 0.023749273 -0.059861448 -0.029253893 0.013385071 -0.026913665 -0.031042794 -0.06790205 -0.10103122 0.04679054 -0.061537135 0.15688235 0.009525236 0.21053666 -0.1378716 -0.047626734 -0.13770257 0.18403304 -0.14043394
program -0.029306881 0.2055712 -0.019189432 0.118710145 -0.056308586 -0.018015303 -0.23228693 -0.20707536 0.1401069 0.13121304 -0.05475358 -0.046072546 0.023483304 -0.048874144 -0.1491416 0.15691409 -0.008388414 -0.0932628 -0.1292914 0.3849592 0.08585289 -0.31816933 0.035572745 0.12029986 0.117571205 0.026993806 0.23369995 0.021552939 0.009400422 0.005312758 0.12217577 -0.020529494 -0.030768348 -0.0051391786 0.26184127 0.15380213 0.11089033 0.07757663 -0.23650135 -0.23508099 -0.078342296 -0.033661876 -0.014309662 0.039390825 -0.3430755 0.104851924 0.15055594 -0.090684034 0.003918267 -0.2009641 -0.10969124 -0.12219463 -0.1943367 -0.16459708 0.072217815 -0.093110755 -0.05945129 0.07852605 -0.32114962 0.23833804 -0.052476343 -0.299285 -0.04337815 0.31811342 0.0529681 -5.8515954e-05 0.023088586 -0.016122239 0.012776307 -0.049344297 -0.08278918 -0.022366265 -0.07411001 0.021222638 0.0743791 0.23960504 -0.08949809 -0.016256535 -0.018494576 -0.01581551 0.2593311 -0.27066812 0.02778971 -0.061994556 -0.033442866 0.013356217 -0.03267932 -0.031012876 -0.07094687 -0.09958927 0.044457536 -0.05701384 0.15512516 0.005934202 0.20564355 -0.13969332 -0.04358238 -0.13644631 0.17687121 -0.13268423
research -0.024729311 0.20094313 -0.020126795 0.1169728 -0.059858706 -0.01593165 -0.22719584 -0.20452641 0.13296291 0.13740991 -0.053530846 -0.042754687 0.027813273 -0.047186613 -0.14976238 0.16041782 -0.0122591695 -0.088371605 -0.12833504 0.3705259 0.08493907 -0.30378908 0.032243952 0.117725305 0.11185674 0.023850601 0.23233865 0.02290885 0.0044320356 0.0059523396 0.12128039 -0.022602087 -0.035850603 -0.004349807 0.24741066 0.14277157 0.11179144 0.06839042 -0.22890092 -0.22811773 -0.07969586 -0.03034297 -0.011617257 0.03773303 -0.33392158 0.10672848 0.15263584 -0.08647793 0.004994034 -0.19560878 -0.11207747 -0.11340167 -0.18924515 -0.15526582 0.064807005 -0.09992565 -0.06546195 0.081505 -0.31033066 0.22719987 -0.058020875 -0.29404664 -0.037091434 0.3152219 0.055215757 -0.0045703235 0.028815657 -0.015759092 0.0064872005 -0.04544216 -0.08863285 -0.025340537 -0.07379445 0.021572245 0.06412569 0.24239329 -0.09070271 -0.017696071 -0.016008895 -0.0147277275 0.25264588 -0.26343128 0.030968528 -0.06316483 -0.03063488 0.019025708 -0.027755197 -0.030280516 -0.06431283 -0.09399754 0.041496098 -0.056519985 0.14610869 0.011327365 0.20060426 -0.13679871 -0.04814951 -0.1278145 0.1714541 -0.12862177
population -0.02888334 0.19371717 -0.020857234 0.119729355 -0.05912128 -0.01909637 -0.22277096 -0.19382262 0.12589052 0.12467265 -0.047603313 -0.043662604 0.022215638 -0.03993653 -0.15095009 0.15747882 -0.012183425 -0.08202828 -0.12621215 0.3627239 0.08531393 -0.29626483 0.032273915 0.108829275 0.11655363 0.022029947 0.22466712 0.022096258 0.0024474645 0.007418221 0.12192867 -0.023692215 -0.029309057 -0.0027013628 0.24038585 0.13879088 0.10307126 0.07545741 -0.22977221 -0.22651698 -0.072625004 -0.03657182 -0.018786822 0.03632565 -0.32798207 0.10452855 0.14592898 -0.09177678 0.009233731 -0.19207312 -0.10628804 -0.10936069 -0.18538886 -0.15232313 0.069256164 -0.093980335 -0.05750166 0.07887309 -0.29999912 0.22091211 -0.054792415 -0.28261957 -0.041219503 0.30513525 0.05082286 -0.004146141 0.027990475 -0.01471884 0.00379543 -0.04077906 -0.08019418 -0.02811241 -0.08014642 0.014607688 0.06967643 0.23644182 -0.08361685 -0.009102391 -0.0128334835 -0.0063744285 0.24291912 -0.2570949 0.017835066 -0.05562573 -0.032741398 0.020674342 -0.020437162 -0.030446235 -0.06931088 -0.09075659 0.03963818 -0.051316284 0.14214987 0.013585895 0.19454361 -0.12499104 -0.04302173 -0.12852946 0.16687459 -0.13021506
service -0.033874366 0.21087098 -0.016086474 0.12960398 -0.06444761 -0.01911305 -0.23631212 -0.2135879 0.13933036 0.13888526 -0.04937272 -0.047908403 0.019444106 -0.049629264 -0.15638351 0.1663296 -0.015206291 -0.09111015 -0.12928998 0.38176185 0.09041524 -0.31786525 0.0286272 0.12186775 0.12577179 0.02711722 0.24113555 0.01773082 0.0037032324 0.011795283 0.12761727 -0.023906808 -0.033357993 -0.00066847506 0.26230413 0.15304768 0.1173584 0.07681717 -0.24165015 -0.23623888 -0.07856367 -0.037065987 -0.015593435 0.033001453 -0.35458145 0.11146917 0.15853073 -0.09772963 0.008368118 -0.20313883 -0.10803835 -0.1227251 -0.19704303 -0.16773112 0.06304555 -0.095374286 -0.061945148 0.080656484 -0.32738674 0.23671864 -0.059759255 -0.3069479 -0.041229635 0.3301045 0.060098916 -0.0002657012 0.029092178 -0.017218677 0.012012572 -0.053537004 -0.08731966 -0.032043125 -0.07541918 0.02319204 0.06972637 0.2500485 -0.090839066 -0.014877248 -0.019018043 -0.016198916 0.25955248 -0.27336994 0.020236352 -0.068330035 -0.037491437 0.017333914 -0.023816213 -0.03904993 -0.076126836 -0.10083252 0.041115202 -0.05768612 0.15301833 0.013709548 0.21142595 -0.14218485 -0.04310619 -0.13730316 0.18216926 -0.14191765
government -0.028665086 0.21638681 -0.024837483 0.12658389 -0.056906074 -0.023266183 -0.24414286 -0.20997444 0.14300941 0.14326653 -0.05079372 -0.05039677 0.025704654 -0.052278023 -0.15532646 0.17201947 -0.0076479446 -0.08795695 -0.1358984 0.39332187 0.08466581 -0.3229121 0.032549717 0.12145848 0.12551852 0.028197402 0.2517066 0.021911487 0.0018533295 0.011072 0.12463353 -0.02325035 -0.040249813 -0.008453035 0.2678651 0.15589604 0.120817736 0.07708627 -0.24948362 -0.23849387 -0.07608483 -0.039715923 -0.01609693 0.040859513 -0.35789615 0.114153475 0.16011152 -0.09291169 0.002751514 -0.20464176 -0.11602109 -0.11914801 -0.19536546 -0.16972606 0.070563294 -0.1023844 -0.06980255 0.08781067 -0.32538712 0.24449767 -0.062252518 -0.31337115 -0.041152537 0.32986188 0.060255837 -0.0079217255 0.02578862 -0.020515798 0.010434098 -0.04976204 -0.09056465 -0.024086317 -0.08453257 0.017756518 0.076093264 0.25344652 -0.092558 -0.008494534 -0.016137566 -0.0068845516 0.26016212 -0.273897 0.024188526 -0.06971016 -0.039286662 0.013942844 -0.022576956 -0.033086773 -0.07638949 -0.10443595 0.041495696 -0.05565254 0.15758786 0.0087371245 0.21203025 -0.13627918 -0.046120647 -0.14477116 0.18880686 -0.14514071
health -0.027786873 0.20353727 -0.016450021 0.11957067 -0.06567952 -0.021128688 -0.23441194 -0.2010536 0.13356774 0.13826533 -0.05147585 -0.051335756 0.025522923 -0.04119431 -0.15420504 0.16064851 -0.015293344 -0.09331543 -0.13433982 0.3813805 0.08562995 -0.31552714 0.02639231 0.11765149 0.120451726 0.030329036 0.23489828 0.018870283 0.0016483258 0.017404232 0.12399242 -0.020371646 -0.032365844 -0.009200379 0.2580303 0.15592024 0.113569826 0.071950704 -0.23806442 -0.23677653 -0.07488505 -0.03103822 -0.01750418 0.032404464 -0.3423647 0.11137172 0.15627538 -0.099121585 0.011918905 -0.20122677 -0.11665535 -0.118351646 -0.1879285 -0.16189235 0.06387883 -0.09456168 -0.06430086 0.07648201 -0.32104284 0.23780116 -0.06260581 -0.29696217 -0.045083508 0.319266 0.05372196 -0.0072158426 0.03057535 -0.01879612 0.011192495 -0.041315388 -0.09635916 -0.031608753 -0.074848086 0.02193993 0.072754815 0.23981209 -0.08748468 -0.0052799433 -0.009971794 -0.0055187372 0.2522654 -0.25918972 0.02544897 -0.06289421 -0.033126485 0.020380815 -0.017174747 -0.031007614 -0.07372145 -0.098584846 0.03882049 -0.05292954 0.1543027 0.00707379 0.20527183 -0.13011977 -0.05175733 -0.13884315 0.177303 -0.14126109
paper -0.031691186 0.2135477 -0.023998782 0.1297634 -0.059642587 -0.018919926 -0.23573503 -0.21289599 0.13438885 0.13358584 -0.050714623 -0.04862949 0.02031201 -0.044257265 -0.15931764 0.16667666 -0.009090416 -0.09467278 -0.13071652 0.38872606 0.08189152 -0.32427397 0.03434652 0.116731904 0.1280514 0.026394788 0.24738953 0.023958897 0.006736476 0.011689708 0.1285818 -0.024464099 -0.03799052 -0.00067645154 0.26297155 0.15412399 0.1098073 0.079880506 -0.25119942 -0.24074642 -0.08386061 -0.031075155 -0.012183777 0.031599306 -0.35466135 0.10802441 0.16266775 -0.09825389 0.003162253 -0.19778731 -0.11470719 -0.1255152 -0.19743879 -0.15981646 0.06526667 -0.100928 -0.06699371 0.085827455 -0.32906324 0.23601249 -0.053163964 -0.3079921 -0.041457202 0.32964593 0.054394964 -0.0031916306 0.023512596 -0.016011244 0.0077437367 -0.046341654 -0.09077884 -0.027478622 -0.07953496 0.021177508 0.07208933 0.250797 -0.090808354 -0.012110313 -0.013324468 -0.0070612505 0.26275617 -0.27668473 0.030951196 -0.06372005 -0.036419217 0.016844798 -0.028493064 -0.03280674 -0.07022422 -0.096795216 0.044840604 -0.05378317 0.1563586 0.010791332 0.21076085 -0.14081456 -0.044393387 -0.13494317 0.18376422 -0.14038111
project -0.027144331 0.19010177 -0.016833222 0.11588052 -0.0546516 -0.017063165 -0.22424905 -0.19842589 0.13046959 0.13335279 -0.045162063 -0.047810994 0.022848414 -0.039547782 -0.14694794 0.15199448 -0.013522805 -0.08073547 -0.12977667 0.3645103 0.077547364 -0.30359414 0.027009144 0.11441616 0.12005211 0.028897474 0.22842674 0.018430663 0.0065128324 0.0039095073 0.12545493 -0.021657908 -0.036805388 -0.00019073112 0.24280918 0.143347 0.103026696 0.0705435 -0.23710102 -0.22041817 -0.07027917 -0.029814722 -0.018095214 0.033300806 -0.33437577 0.100896955 0.14923856 -0.09492491 0.009662184 -0.18836287 -0.10861344 -0.10819624 -0.1847446 -0.15416631 0.06397393 -0.094760805 -0.06337403 0.073501736 -0.30336937 0.22924148 -0.0570273 -0.28386152 -0.034574594 0.30269256 0.046486948 -0.004504027 0.024037696 -0.019781733 0.002858905 -0.04850359 -0.08280078 -0.021792762 -0.07248735 0.022611285 0.070994355 0.23232135 -0.08631828 -0.00969808 -0.017035028 -0.01081029 0.24965675 -0.2565634 0.027213553 -0.058187336 -0.030954523 0.021557642 -0.03239748 -0.033095527 -0.0690137 -0.09303465 0.045621444 -0.052676648 0.14668722 0.013285014 0.20129341 -0.13445695 -0.044300586 -0.12886737 0.16595079 -0.1297184
provide -0.031217808 0.20079005 -0.019598657 0.1225612 -0.05772142 -0.016530147 -0.23342213 -0.21214859 0.13707407 0.140974 -0.049404614 -0.053002983 0.018566709 -0.044933107 -0.15332225 0.16773574 -0.008537818 -0.092397355 -0.13104075 0.38579535 0.09048947 -0.3145011 0.02795793 0.1140838 0.12065749 0.028175417 0.2409625 0.02492189 0.0013588679 0.0075871604 0.12485148 -0.029486211 -0.03431779 -0.006166582 0.25639433 0.15143874 0.115555525 0.07511065 -0.24205217 -0.23641138 -0.07752971 -0.04015984 -0.013715491 0.03620544 -0.3524958 0.10669399 0.15118517 -0.08984046 0.0042503676 -0.19515762 -0.10736387 -0.12224761 -0.19270594 -0.16489354 0.071841955 -0.09571984 -0.06259221 0.08249158 -0.3194254 0.24014862 -0.055410843 -0.30714905 -0.035059407 0.31999734 0.053581778 -0.0064708823 0.032022074 -0.018590974 0.0042758915 -0.044821773 -0.085266374 -0.027301326 -0.074330516 0.020955766 0.066542886 0.24698569 -0.09306719 -0.0085522095 -0.0121092545 -0.009184043 0.25394696 -0.2731207 0.020366127 -0.06763831 -0.03263528 0.018514631 -0.023784973 -0.033173684 -0.07120769 -0.09453461 0.040681295 -0.05422629 0.15290736 0.014871417 0.20401528 -0.1331628 -0.0462355 -0.14050892 0.17672692 -0.13255997
affair -0.03181836 0.19961968 -0.022347271 0.118383236 -0.05421979 -0.012917067 -0.23491576 -0.2036218 0.13739072 0.13208021 -0.04930285 -0.05155776 0.018659003 -0.04907039 -0.14641257 0.16286078 -0.011545027 -0.0915831 -0.12816563 0.3739849 0.08360474 -0.30372548 0.028590553 0.11426124 0.1211273 0.021972843 0.2365414 0.026141087 0.008850423 0.007997829 0.11841844 -0.029083155 -0.03439011 -0.0021329133 0.24623887 0.14497575 0.108413704 0.07529519 -0.23978607 -0.23186286 -0.07122587 -0.037298407 -0.017638316 0.031291932 -0.34634686 0.102019474 0.15076084 -0.09576978 0.004360722 -0.18945776 -0.10582247 -0.1145125 -0.18751217 -0.16103765 0.07082346 -0.09933352 -0.06604476 0.08084495 -0.31472495 0.2308751 -0.051295996 -0.2916071 -0.039544016 0.3159973 0.053791255 0.0010392343 0.023488939 -0.016838592 0.0071483804 -0.047772046 -0.088485226 -0.027405934 -0.07610179 0.022274405 0.06720706 0.24015093 -0.089417934 -0.006598018 -0.017828135 -0.013635647 0.2500623 -0.266101 0.02756483 -0.064848036 -0.03232474 0.018833805 -0.02658631 -0.035235025 -0.06747269 -0.0907604 0.044553325 -0.054311056 0.14486411 0.01659568 0.20697622 -0.13312168 -0.039867174 -0.13169967 0.17707402 -0.13321227
right -0.025420304 0.2091764 -0.022583393 0.12122915 -0.06703211 -0.01873429 -0.23593713 -0.21633698 0.13293001 0.14197004 -0.05453448 -0.051766995 0.016804306 -0.04881197 -0.15964995 0.15797858 -0.01261881 -0.0909387 -0.13179305 0.3834901 0.08702705 -0.3162864 0.03666612 0.12689434 0.12212392 0.022550387 0.24493878 0.027667873 0.0005039697 0.008876547 0.12618333 -0.025781559 -0.040633693 -0.0075401864 0.2581603 0.15378487 0.112305515 0.076015405 -0.24160014 -0.23229355 -0.08528541 -0.030286528 -0.015629875 0.03870042 -0.35733023 0.113345765 0.15456179 -0.096502006 0.0008029746 -0.19355832 -0.113846265 -0.11716165 -0.19289534 -0.16048415 0.07258334 -0.09759967 -0.061385673 0.08932371 -0.31538913 0.23771425 -0.053401653 -0.30054805 -0.038021058 0.32452297 0.05706552 -0.0032344614 0.026248647 -0.012685324 0.011222271 -0.049985696 -0.09139754 -0.028836874 -0.07741861 0.018455232 0.06563863 0.24168088 -0.08916349 -0.01610362 -0.014651349 -0.014384881 0.25822735 -0.2752972 0.021303048 -0.065100156 -0.03259756 0.017027471 -0.025487738 -0.04085616 -0.07135491 -0.103542514 0.04541298 -0.052280843 0.15109694 0.011246311 0.21233368 -0.13257499 -0.0458383 -0.14281026 0.17334823 -0.14122698
social -0.023465268 0.2002218 -0.01978164 0.12284136 -0.06332679 -0.015809918 -0.23123981 -0.19758159 0.13247971 0.13093315 -0.050645582 -0.052743327 0.02312254 -0.046807595 -0.14732197 0.16308339 -0.0067935344 -0.088425025 -0.13146642 0.37667972 0.08678883 -0.30959126 0.028596101 0.12056457 0.11425288 0.03113864 0.22924447 0.02685939 0.001404995 0.011719131 0.12483281 -0.026820635 -0.037217334 -0.006388808 0.25295687 0.15159321 0.10732699 0.07732807 -0.23160265 -0.2285302 -0.07150567 -0.033237103 -0.013278529 0.030124992 -0.34635606 0.10203513 0.14711776 -0.087815516 0.010216566 -0.19774629 -0.10664251 -0.11279972 -0.18833001 -0.16110621 0.0666494 -0.09271523 -0.059242465 0.08236557 -0.31093708 0.23414572 -0.054137804 -0.29568955 -0.041938353 0.3184131 0.049463835 -0.001254853 0.030033832 -0.018391121 0.007733321 -0.05033773 -0.08641722 -0.02562026 -0.07670326 0.012706441 0.072009474 0.23513576 -0.090347014 -0.008775178 -0.014296837 -0.014490317 0.24693906 -0.26590496 0.025110852 -0.06279897 -0.03731174 0.022010189 -0.019666776 -0.037424877 -0.063545026 -0.09912142 0.04628081 -0.05196559 0.1459032 0.010025989 0.2036263 -0.12817629 -0.041293956 -0.13701 0.16755554 -0.13102101
data -0.024147095 0.19292843 -0.014794182 0.1214888 -0.057571646 -0.01637845 -0.2285552 -0.20118949 0.1321954 0.13056248 -0.050689146 -0.046596263 0.02475427 -0.037890412 -0.15188012 0.16035295 -0.010387807 -0.08110111 -0.12322322 0.3719922 0.08239166 -0.30535182 0.028236952 0.110070266 0.11885179 0.027916858 0.2338861 0.022745933 0.0018240841 0.0101465825 0.12273909 -0.025402818 -0.0326085 8.0260535e-05 0.25219303 0.15166186 0.10300981 0.06935255 -0.23517615 -0.2283667 -0.081248686 -0.031728476 -0.011091549 0.03800938 -0.34021917 0.09850198 0.14313467 -0.08960561 0.004735467 -0.18985626 -0.108710706 -0.109353974 -0.17909831 -0.15185685 0.0680027 -0.092848346 -0.058976103 0.07877553 -0.30851096 0.22960548 -0.055792276 -0.2876562 -0.03595807 0.30996612 0.048425004 -0.0046735224 0.02089358 -0.013380359 0.008546019 -0.047819857 -0.08566967 -0.027512966 -0.074449256 0.013150748 0.06445865 0.23541597 -0.081762806 -0.0126385 -0.013784393 -0.008049258 0.24304889 -0.25488505 0.023489647 -0.06047851 -0.03662349 0.018664375 -0.028649358 -0.035826527 -0.074122936 -0.099841945 0.045011733 -0.05305133 0.14552198 0.007422948 0.20387703 -0.13666195 -0.049515843 -0.13098213 0.1703016 -0.1359534
use -0.033568747 0.20246878 -0.01799477 0.1203852 -0.05746085 -0.016845616 -0.23535672 -0.2028385 0.13558717 0.13119319 -0.056427155 -0.045789365 0.023603093 -0.04811864 -0.15738064 0.15776743 -0.0103185335 -0.091605626 -0.13458373 0.38485464 0.08233312 -0.31373724 0.031310312 0.11972862 0.12130791 0.02869089 0.23430264 0.017625028 0.0026282086 0.01017684 0.12986568 -0.02193901 -0.041361056 -0.00994274 0.25933293 0.15550584 0.1067949 0.076840684 -0.24369286 -0.23272017 -0.083502196 -0.031219833 -0.014571656 0.031108623 -0.3432352 0.10499864 0.1547234 -0.09763149 0.0049172197 -0.19225015 -0.108196706 -0.11597489 -0.18418379 -0.15483555 0.07180705 -0.10067876 -0.066758156 0.07597537 -0.31927222 0.24184619 -0.058811825 -0.30281404 -0.036266614 0.3186463 0.057288263 -0.0011092956 0.029150996 -0.016387383 0.0096881 -0.045418885 -0.083314694 -0.023640988 -0.08335988 0.017789736 0.06814295 0.24427363 -0.09127458 -0.014840532 -0.01684899 -0.013546954 0.25653428 -0.26523414 0.027627122 -0.060540453 -0.033811003 0.015790362 -0.030939823 -0.032048836 -0.07444392 -0.09779127 0.04239028 -0.05771714 0.1501066 0.010351616 0.2121671 -0.13170867 -0.052054968 -0.1365962 0.1751793 -0.13157003
land -0.031201271 0.20758566 -0.017988063 0.11960735 -0.06252306 -0.012811134 -0.23737481 -0.20637758 0.13276516 0.13234574 -0.05680683 -0.049900644 0.017069291 -0.044109423 -0.15657829 0.16857497 -0.007082393 -0.08356247 -0.13238074 0.38487795 0.08143225 -0.3079494 0.027191631 0.11754843 0.11816882 0.025135309 0.23228088 0.021922916 0.006503354 0.0064718253 0.12214853 -0.029080393 -0.038150538 -0.0013665856 0.2547228 0.15504383 0.10540362 0.072323285 -0.2335708 -0.23470399 -0.07386878 -0.03293267 -0.0119545525 0.038837336 -0.35193768 0.10929285 0.15349975 -0.09467219 0.009255676 -0.19137776 -0.10775474 -0.12183749 -0.1868542 -0.16063559 0.06861146 -0.09397663 -0.06923582 0.08477092 -0.3212158 0.24157009 -0.0575641 -0.30268273 -0.0428575 0.32157826 0.055009734 -0.0026520977 0.03122436 -0.019229874 0.0032001534 -0.053551637 -0.08607902 -0.03178282 -0.07827198 0.018547859 0.0677174 0.24359933 -0.09183645 -0.009668183 -0.007775026 -0.01551286 0.2463748 -0.2635222 0.029384252 -0.058140878 -0.03184917 0.019663965 -0.02905637 -0.033836506 -0.0710825 -0.094801 0.044866685 -0.05672069 0.15013267 0.010658212 0.20856896 -0.13419399 -0.04267377 -0.13082212 0.17719407 -0.14139524
life -0.026235836 0.2042389 -0.019543609 0.11668935 -0.057831846 -0.015701989 -0.24269274 -0.20391491 0.1338751 0.14009297 -0.05336957 -0.044412095 0.021603711 -0.043028038 -0.15036443 0.16731474 -0.007781763 -0.09175819 -0.13211595 0.38774076 0.0840267 -0.3178968 0.031493 0.12486054 0.12640694 0.022340786 0.23618574 0.016235158 0.0029210022 0.014646454 0.12486899 -0.02548397 -0.041283015 -0.008837159 0.26280135 0.15529564 0.111070596 0.078633554 -0.24254504 -0.22909397 -0.07654342 -0.030509572 -0.018255342 0.03150258 -0.3517383 0.10509124 0.15532905 -0.0925197 0.008544348 -0.20400234 -0.10935143 -0.11959265 -0.18563744 -0.15464784 0.07177841 -0.100114174 -0.06777492 0.077776834 -0.3181441 0.24206096 -0.06026824 -0.29504475 -0.043593004 0.3197872 0.05360136 0.003129344 0.024957398 -0.012069777 0.013878581 -0.046233762 -0.08958303 -0.02417635 -0.07582522 0.012640003 0.07071943 0.2411595 -0.08574035 -0.010518136 -0.016017908 -0.014054543 0.25266722 -0.2639071 0.028386714 -0.06779579 -0.038525928 0.01170656 -0.023308747 -0.036558848 -0.071863845 -0.10322248 0.043602005 -0.059578143 0.15503907 0.005322179 0.20802578 -0.135121 -0.052533146 -0.1314706 0.17443417 -0.14059699
issue -0.029056277 0.20247261 -0.022685938 0.1247605 -0.054121323 -0.020192344 -0.22544427 -0.20524496 0.13014397 0.13413341 -0.04749951 -0.052532036 0.02526411 -0.04735284 -0.14901155 0.15772456 -0.012050603 -0.08421061 -0.1281474 0.3720968 0.08799106 -0.3092186 0.035540424 0.110336676 0.113771126 0.028217245 0.2315525 0.025231736 0.0056814407 0.011139732 0.12609471 -0.02056676 -0.03912933 -0.0028912828 0.25363624 0.15255351 0.10947734 0.06903925 -0.23038402 -0.2263063 -0.079433985 -0.0313778 -0.01673171 0.039332885 -0.3455505 0.10316373 0.14631224 -0.08732462 0.0092092585 -0.19276386 -0.102902606 -0.120419145 -0.18073721 -0.15717885 0.06594042 -0.09598499 -0.06597022 0.085069515 -0.30699646 0.23592034 -0.049130112 -0.2957027 -0.039637513 0.31351414 0.05411044 9.0295805e-05 0.028205793 -0.019007845 0.005943169 -0.04847282 -0.085225746 -0.024792247 -0.077383086 0.016655816 0.06398611 0.24418923 -0.08760568 -0.009419315 -0.010633795 -0.011359091 0.25000516 -0.25819734 0.02351487 -0.05961406 -0.02848438 0.0218584 -0.02130391 -0.03493466 -0.072597235 -0.092441045 0.03939095 -0.05316178 0.14928366 0.01318381 0.20525597 -0.13124262 -0.048717782 -0.1368261 0.17244442 -0.13809212
national -0.03507386 0.20128132 -0.015166885 0.117374934 -0.05747845 -0.018201265 -0.2284716 -0.19442959 0.12622835 0.12627716 -0.042843346 -0.046670865 0.016224338 -0.04086285 -0.15068951 0.16123468 -0.015205928 -0.08896929 -0.12232709 0.37259373 0.077941105 -0.301267 0.033486027 0.11757239 0.119874425 0.027097002 0.22683118 0.020457514 0.0051621613 0.013740461 0.12439134 -0.021526655 -0.033389024 -0.0004132454 0.24048896 0.14439721 0.11015939 0.071532056 -0.23389688 -0.22443652 -0.071773626 -0.03663924 -0.016183581 0.0337176 -0.33302438 0.10347146 0.15148894 -0.09135655 0.0068524806 -0.19101657 -0.108125135 -0.115978114 -0.18591718 -0.15571557 0.06650107 -0.09061109 -0.05816472 0.07954391 -0.3045858 0.2223515 -0.050581936 -0.28759426 -0.035193827 0.30862343 0.05113552 0.0009843964 0.030529225 -0.021228444 0.0076004276 -0.0449428 -0.08856633 -0.028092796 -0.08167927 0.01757275 0.061869 0.23643294 -0.08712889 -0.009336221 -0.015331761 -0.005324602 0.24358602 -0.25953108 0.024089247 -0.05788821 -0.03322401 0.021686362 -0.027151892 -0.03297972 -0.07085215 -0.09693446 0.03929151 -0.05959793 0.1463195 0.012521354 0.20404558 -0.12921633 -0.04122831 -0.1322825 0.16680689 -0.12804933
new -0.03258273 0.20864835 -0.018795691 0.12383423 -0.06476809 -0.024928601 -0.24299969 -0.21164103 0.13967146 0.1422389 -0.055270903 -0.048570406 0.019414676 -0.045975205 -0.15210272 0.16460913 -0.010113919 -0.08738391 -0.12839694 0.38820753 0.0915191 -0.32036704 0.026349274 0.117828086 0.12002831 0.034066312 0.2463382 0.024761476 -0.0002114353 0.0067294734 0.12567382 -0.025258511 -0.03520293 -0.0064454703 0.25326553 0.15022998 0.10842806 0.07488209 -0.24650286 -0.23405401 -0.0809336 -0.03711176 -0.017036496 0.040085193 -0.34898478 0.104754575 0.16065046 -0.09132452 0.0047677024 -0.19788481 -0.11285825 -0.11893287 -0.1945343 -0.16157159 0.06372926 -0.0993443 -0.06012839 0.07837947 -0.32660684 0.2351754 -0.05376087 -0.30674532 -0.04200213 0.31980258 0.06022327 0.0020445068 0.028868034 -0.016896408 0.00671168 -0.04869795 -0.08827626 -0.03320936 -0.08530533 0.020253092 0.07155032 0.25292975 -0.08714254 -0.015463406 -0.010314805 -0.011529239 0.26039532 -0.2689925 0.024031036 -0.06054046 -0.038739923 0.018845368 -0.024193306 -0.0357183 -0.076887764 -0.10297722 0.044053115 -0.06256051 0.15341629 0.008123837 0.20984015 -0.13852978 -0.041858748 -0.1369321 0.17948176 -0.13476327
territory -0.0285858 0.19939937 -0.02343842 0.12071035 -0.057393994 -0.013546526 -0.23016636 -0.19851722 0.123273194 0.12602869 -0.05039284 -0.053594887 0.017729467 -0.04115732 -0.15210994 0.15454671 -0.0060583265 -0.08913359 -0.1277707 0.37605867 0.07619321 -0.30573592 0.023914814 0.11030414 0.12123132 0.026827144 0.23204815 0.019266156 0.0005193607 0.005622531 0.11546175 -0.020847335 -0.033292398 0.00209184 0.24316631 0.14822096 0.103963174 0.073489785 -0.22831337 -0.23129459 -0.07591126 -0.027865741 -0.014017537 0.027394254 -0.3433607 0.09959482 0.15459897 -0.09233265 0.0039750724 -0.1879264 -0.10599206 -0.11097129 -0.18332846 -0.15340558 0.0673306 -0.089984685 -0.05777544 0.0797873 -0.31102318 0.23533015 -0.049512494 -0.29027146 -0.034367453 0.31861213 0.058037095 -0.006104725 0.027872361 -0.020882156 0.0063843536 -0.042274326 -0.081089556 -0.032615867 -0.08301591 0.015138095 0.0637988 0.24381697 -0.09218792 -0.012058981 -0.008466744 -0.011622323 0.24269325 -0.26406404 0.02789094 -0.05417231 -0.038498294 0.025470467 -0.029458782 -0.03874714 -0.0750532 -0.09656304 0.046073876 -0.056077622 0.14346221 0.00872377 0.2081062 -0.13614374 -0.045887463 -0.12972343 0.17272054 -0.12874097
year -0.031551063 0.19905841 -0.0131097725 0.12205162 -0.05621218 -0.017822979 -0.22908238 -0.20476073 0.12925497 0.1302607 -0.04844423 -0.05272611 0.028113293 -0.048251156 -0.14930165 0.16596043 -0.013815606 -0.08812233 -0.12740308 0.3774193 0.08305084 -0.31044328 0.035805933 0.11292495 0.11463945 0.029292956 0.23251784 0.018202104 0.0013795651 0.013879335 0.12409341 -0.028388483 -0.040707875 -0.00640812 0.2548453 0.14719446 0.11213505 0.074638784 -0.2344493 -0.22559936 -0.08058685 -0.028856112 -0.01226968 0.03593223 -0.33832636 0.10300753 0.14762081 -0.094708934 0.007250622 -0.19280253 -0.10713505 -0.11290553 -0.17958649 -0.1574198 0.064059325 -0.092190586 -0.06418289 0.077036954 -0.31256178 0.23446622 -0.05703346 -0.2964042 -0.037097834 0.32058418 0.049066994 0.0007170756 0.023226222 -0.012694387 0.006677412 -0.049704812 -0.08974994 -0.029891685 -0.08086576 0.013140522 0.06947842 0.24560377 -0.09145231 -0.016976146 -0.012836179 -0.014323786 0.25455236 -0.25919724 0.026634762 -0.0668351 -0.031176444 0.011923935 -0.026403103 -0.030743496 -0.06669876 -0.10040223 0.038004026 -0.05120148 0.15159966 0.0076579344 0.20495966 -0.13316865 -0.043913953 -0.12816189 0.17900464 -0.13582869
police -0.030892685 0.22006729 -0.019599324 0.1337048 -0.058968745 -0.01603703 -0.24403813 -0.21800318 0.14285032 0.14359728 -0.056218196 -0.049534414 0.022332117 -0.04627251 -0.15809967 0.17878585 -0.0062333154 -0.09846381 -0.13612854 0.4076137 0.09165998 -0.33423808 0.02967853 0.119572766 0.124035865 0.03316487 0.2550804 0.02044838 0.0027863176 0.006515558 0.12629962 -0.029242165 -0.037753314 -0.0075479015 0.2708724 0.15770756 0.1168513 0.07570558 -0.2519238 -0.24697872 -0.08713454 -0.029449252 -0.016628092 0.03597412 -0.3697448 0.10985771 0.15750897 -0.09460963 0.0117685255 -0.20665334 -0.11411949 -0.12960926 -0.20204835 -0.16340095 0.07447956 -0.103791796 -0.061974123 0.09211026 -0.33624944 0.24777281 -0.062545575 -0.3211262 -0.037958305 0.34121415 0.052660584 0.0012097367 0.028992943 -0.015092923 0.0121652875 -0.047000974 -0.09543592 -0.031483974 -0.08071486 0.0250051 0.0763408 0.26023707 -0.09779254 -0.017868344 -0.017082116 -0.01021369 0.2672663 -0.27846184 0.02751724 -0.066870384 -0.035118304 0.02350457 -0.03178789 -0.03985582 -0.07542199 -0.09794533 0.04789264 -0.062059104 0.15732005 0.0075865835 0.2236131 -0.14104113 -0.04895047 -0.14956358 0.1934752 -0.14316082
key -0.03238235 0.1943942 -0.022045862 0.12088985 -0.056239847 -0.019472508 -0.22783363 -0.19764791 0.12705156 0.13326171 -0.045250963 -0.049340274 0.027097821 -0.048438605 -0.1533212 0.15878633 -0.01294288 -0.09116592 -0.12690087 0.37147576 0.08254058 -0.2981052 0.034674864 0.118225545 0.1173208 0.029656699 0.22749819 0.025106547 0.0063201627 0.006401366 0.1203724 -0.026731346 -0.03437406 -0.004820339 0.25341105 0.14176431 0.105015256 0.072055444 -0.23408262 -0.22659275 -0.073330335 -0.029682837 -0.012623133 0.035277545 -0.34209162 0.10013237 0.15409534 -0.0906167 0.00035485555 -0.19064832 -0.10773647 -0.11984463 -0.18364155 -0.1550892 0.0686 -0.09737851 -0.06743359 0.07959605 -0.3043874 0.2250293 -0.053767737 -0.29038692 -0.0375062 0.31473872 0.052099656 -0.0025889203 0.028003966 -0.017369738 0.005515989 -0.04395422 -0.0903178 -0.024983883 -0.07417225 0.017139101 0.062894724 0.2330198 -0.08630418 -0.018366193 -0.01449767 -0.010915398 0.25183174 -0.26371863 0.023303065 -0.059258714 -0.029533235 0.016352227 -0.021134045 -0.030003123 -0.06920944 -0.09240417 0.046135373 -0.056352466 0.14957377 0.013733298 0.19751531 -0.13304603 -0.04796007 -0.137423 0.17394802 -0.12676932
culture -0.030450381 0.19786201 -0.020078374 0.11888972 -0.05712031 -0.01281181 -0.22487049 -0.199465 0.13298194 0.13165587 -0.047198642 -0.04799981 0.024729218 -0.039996423 -0.14496695 0.15845862 -0.010317473 -0.09015765 -0.12698069 0.3741714 0.07657234 -0.30254588 0.027744165 0.11221925 0.116318785 0.029665632 0.23100744 0.024448147 0.009727705 0.0058919517 0.11768357 -0.023866037 -0.02967827 -0.0023416136 0.24744959 0.14802696 0.10427092 0.06687427 -0.23140189 -0.22705515 -0.08007225 -0.028536009 -0.01076025 0.035833985 -0.33754012 0.10328954 0.15156724 -0.09097638 0.0012802491 -0.19039732 -0.10920152 -0.11627493 -0.1857206 -0.1602765 0.06890302 -0.0992915 -0.06065226 0.080599144 -0.31382528 0.22709423 -0.05525825 -0.29800636 -0.04180857 0.3158674 0.05356197 0.00033281522 0.029823408 -0.013106955 0.009269631 -0.04773228 -0.08146342 -0.021685861 -0.07338773 0.016544418 0.07029179 0.24258322 -0.08890959 -0.017007401 -0.018627184 -0.007060864 0.24656758 -0.26099214 0.019436952 -0.06608903 -0.034029238 0.015009751 -0.0250926 -0.03419724 -0.07300518 -0.096270695 0.03679272 -0.05062501 0.14551023 0.011619823 0.19959201 -0.138084 -0.03982254 -0.13665909 0.1668623 -0.12926708
nonindigenous -0.031415798 0.18910317 -0.014298364 0.12066677 -0.060624808 -0.015846545 -0.22542219 -0.1934229 0.12826456 0.12470142 -0.050330464 -0.0443623 0.027507702 -0.047518473 -0.1495416 0.1527238 -0.005232644 -0.08005379 -0.12869659 0.36602464 0.07985062 -0.29240456 0.031405896 0.11305457 0.118817694 0.021574821 0.2317229 0.016953323 0.0046349806 0.008148139 0.12325933 -0.022684267 -0.033975482 -0.0047459775 0.24119118 0.14797708 0.1067833 0.072714426 -0.233112 -0.217922 -0.079823926 -0.026759429 -0.016922202 0.033832148 -0.32733 0.09652198 0.13968709 -0.09443289 0.009418974 -0.18340842 -0.11100657 -0.11235313 -0.17857502 -0.14798455 0.06563312 -0.08764028 -0.05997639 0.079361446 -0.30551618 0.22898763 -0.056459624 -0.28261903 -0.03441931 0.31040207 0.05480113 0.0005185096 0.022658559 -0.019490736 0.011335396 -0.04869291 -0.08156963 -0.02368706 -0.078227796 0.0195384 0.06514878 0.22937723 -0.08061608 -0.008478247 -0.010943143 -0.007899088 0.23928273 -0.24950778 0.019867184 -0.06463527 -0.037358873 0.021674631 -0.018666642 -0.035129342 -0.067399114 -0.0977345 0.0397935 -0.052691046 0.13747974 0.011319107 0.19593969 -0.13381116 -0.04923217 -0.13229506 0.17162147 -0.13334744
northern -0.031916466 0.18942282 -0.021723248 0.12008035 -0.051085282 -0.0109259365 -0.22188939 -0.1994216 0.12775286 0.12875892 -0.04605135 -0.050950408 0.018027423 -0.038950916 -0.13757421 0.15554048 -0.012526586 -0.07672878 -0.11907385 0.35988253 0.0774875 -0.28848502 0.02463793 0.105865955 0.11308288 0.028236903 0.22545122 0.018958779 0.010946033 0.010156412 0.11994919 -0.028476393 -0.037822776 0.0003963038 0.23263924 0.13555112 0.10793252 0.07446221 -0.22345622 -0.21989569 -0.07456209 -0.028644472 -0.015769618 0.030888224 -0.32270738 0.097359285 0.14128585 -0.09139833 0.009893782 -0.17912374 -0.10592479 -0.11331929 -0.17671522 -0.15376273 0.065687686 -0.08526848 -0.056999743 0.07957422 -0.29860783 0.22687072 -0.055285394 -0.2792975 -0.035153326 0.2994016 0.053150292 -0.005367462 0.031751882 -0.020484524 0.006427103 -0.0467997 -0.08312618 -0.023004325 -0.082584426 0.013665848 0.060853623 0.23490201 -0.07720512 -0.015458727 -0.006090398 -0.0075754747 0.23294345 -0.2525767 0.017707009 -0.052174605 -0.037852764 0.023429835 -0.027342677 -0.037890613 -0.0678417 -0.08503829 0.04394996 -0.056147113 0.13646509 0.00895696 0.20003183 -0.12234956 -0.044008333 -0.12957193 0.16763543 -0.12310234
need -0.030295486 0.19964094 -0.02278858 0.11880118 -0.05808831 -0.017451763 -0.22728644 -0.207822 0.13044587 0.13292474 -0.05154192 -0.052791078 0.026285427 -0.045217797 -0.14669631 0.15551932 -0.006666241 -0.08632692 -0.12284499 0.37277594 0.08047204 -0.3030836 0.03172114 0.11808855 0.11555776 0.023869753 0.23340799 0.01749173 0.0019985072 0.013844066 0.1247537 -0.030172458 -0.034308437 -0.0014904307 0.24442808 0.1444193 0.11138318 0.07628918 -0.23611978 -0.22358966 -0.07528108 -0.031680826 -0.012442375 0.030839657 -0.3400101 0.10757719 0.14683113 -0.09212507 0.0034163715 -0.1957732 -0.10553497 -0.116053194 -0.18596688 -0.152342 0.06798622 -0.09744196 -0.062119417 0.07651999 -0.31503195 0.22493687 -0.055128098 -0.29488343 -0.03274263 0.31752622 0.049542326 -0.006232892 0.02685431 -0.014680698 0.0045597916 -0.0458699 -0.088131644 -0.024712207 -0.078118235 0.02050847 0.06694176 0.23640996 -0.08926342 -0.00892914 -0.0099317115 -0.012047997 0.24258204 -0.2616956 0.028830431 -0.063510075 -0.032992844 0.019099692 -0.025086867 -0.037150547 -0.06760279 -0.0951483 0.037043653 -0.060246706 0.14884777 0.0074153123 0.20288488 -0.13297813 -0.046412896 -0.13643225 0.17445369 -0.13674119
education -0.028629284 0.21388306 -0.016957829 0.1301147 -0.067168154 -0.017530382 -0.24423915 -0.2098552 0.14165199 0.13954182 -0.051172096 -0.053325657 0.021952916 -0.04192242 -0.16128248 0.16672738 -0.005331115 -0.0908256 -0.13136224 0.3836981 0.08854019 -0.31748724 0.033435218 0.12515892 0.12313049 0.03076358 0.24824812 0.017687669 0.005391516 0.01045785 0.13103044 -0.030607734 -0.034115825 -0.0075180703 0.25934565 0.15441397 0.109548 0.08174272 -0.24795343 -0.23734419 -0.08207257 -0.031815097 -0.015923278 0.031240422 -0.3608452 0.11229235 0.15959165 -0.1006337 0.004880647 -0.20291102 -0.11724161 -0.11634412 -0.19558366 -0.15985064 0.065936245 -0.09418847 -0.06745391 0.08540529 -0.32541883 0.24293269 -0.059229236 -0.31255144 -0.041498404 0.3258699 0.051746983 -0.0004468097 0.02108017 -0.019709611 0.011365886 -0.05325831 -0.08981696 -0.029451963 -0.08296212 0.021906303 0.07281323 0.24591886 -0.09137905 -0.012877689 -0.014937757 -0.014930634 0.25704712 -0.26992962 0.02201576 -0.06217876 -0.02980877 0.013380185 -0.021625137 -0.031321514 -0.06862645 -0.09846979 0.042234026 -0.0557934 0.1582797 0.016088888 0.2140572 -0.1362669 -0.046829194 -0.14307411 0.17908192 -0.13689089
area -0.02856387 0.19945802 -0.017802157 0.1235603 -0.056054585 -0.013123741 -0.23391907 -0.20411989 0.13263728 0.13581583 -0.050899036 -0.048827674 0.025524374 -0.047524206 -0.14767915 0.16028614 -0.013106501 -0.088644624 -0.12963253 0.3791072 0.088325895 -0.3097169 0.028563349 0.12017034 0.11477726 0.027534282 0.23604904 0.02028721 0.0052185883 0.014964496 0.12343786 -0.029875424 -0.031237163 -0.0038870645 0.24875878 0.14773118 0.109544545 0.07752254 -0.23488405 -0.23146854 -0.07888395 -0.03270246 -0.010934994 0.035599284 -0.34448996 0.10902729 0.15400374 -0.093333535 0.008225184 -0.19963214 -0.1070983 -0.11854599 -0.1908288 -0.155432 0.0636827 -0.09607222 -0.06286169 0.080440216 -0.30862206 0.23171459 -0.052038275 -0.29207394 -0.033256624 0.3191801 0.05786572 -0.0012938495 0.025069427 -0.013820904 0.011507086 -0.04209688 -0.08740686 -0.02765239 -0.073774256 0.016587185 0.07262789 0.23927431 -0.091712885 -0.008029319 -0.015236155 -0.014386583 0.24684472 -0.25886872 0.02017552 -0.057922345 -0.03818391 0.015425475 -0.02608153 -0.030795721 -0.07005031 -0.09332216 0.046380684 -0.05968408 0.15199645 0.01489438 0.2070148 -0.1334755 -0.044461496 -0.1393953 0.17683409 -0.1297024
outcome -0.03012037 0.20019343 -0.020884436 0.12149287 -0.057025973 -0.01491489 -0.23318812 -0.20127578 0.13394423 0.13385586 -0.05204151 -0.0457327 0.022568066 -0.04824829 -0.14611328 0.16212294 -0.010498599 -0.08490417 -0.13202265 0.3671168 0.078723416 -0.30555373 0.03534615 0.11613403 0.11455697 0.026331257 0.2315954 0.02183835 0.004917849 0.01340169 0.12725972 -0.025945663 -0.03032706 -0.007636751 0.2524474 0.14561148 0.106230326 0.07319913 -0.23278044 -0.22221133 -0.076522775 -0.031546697 -0.012040291 0.036876258 -0.33634034 0.1075248 0.15482123 -0.08985267 0.007855181 -0.19392803 -0.11415017 -0.11408614 -0.18638892 -0.15763365 0.065043785 -0.093665406 -0.0638172 0.07827527 -0.30913502 0.23344526 -0.051358264 -0.28986636 -0.03693983 0.3160246 0.04777465 -0.003264661 0.030293306 -0.017609928 0.008187161 -0.04397841 -0.08542723 -0.029769119 -0.07613354 0.021408632 0.07223622 0.23293371 -0.090273656 -0.016117364 -0.0135200815 -0.010704828 0.25261024 -0.2639417 0.024246043 -0.065520726 -0.038506906 0.022834528 -0.02734242 -0.028631018 -0.066826016 -0.08948644 0.040010463 -0.055605467 0.14519478 0.013868623 0.20221946 -0.13382322 -0.04551577 -0.13888656 0.16857484 -0.1303216
include -0.029929258 0.19442984 -0.018961387 0.11836572 -0.059565242 -0.013987897 -0.22434175 -0.20082821 0.13345715 0.13732031 -0.056022644 -0.05327079 0.022913188 -0.047861956 -0.14695719 0.16124725 -0.0047118263 -0.09144985 -0.12792024 0.37259692 0.07778751 -0.307741 0.027103756 0.10984697 0.114608936 0.023765821 0.2323426 0.020324724 0.00048426082 0.014420474 0.115988255 -0.03203699 -0.032641776 -0.009162474 0.25252804 0.14456189 0.10685717 0.06908781 -0.22890675 -0.2287705 -0.080409124 -0.03154537 -0.0077779912 0.02909199 -0.34068328 0.10779667 0.15211754 -0.0937806 0.0022067132 -0.18641314 -0.11014242 -0.1193982 -0.18467703 -0.15304151 0.06930487 -0.09253796 -0.063313976 0.082868956 -0.31390002 0.22577442 -0.049621608 -0.29123634 -0.042305186 0.30765256 0.04985866 0.0020600627 0.022588005 -0.017484507 0.0117191 -0.040388674 -0.084055126 -0.029991051 -0.078188375 0.013364269 0.064983055 0.24064809 -0.080711454 -0.016021833 -0.014738536 -0.008604986 0.2522737 -0.25679252 0.027105795 -0.062485337 -0.029792218 0.012616813 -0.026345888 -0.038110867 -0.072039545 -0.095313884 0.040727664 -0.055931278 0.14880653 0.014252797 0.20244049 -0.12990558 -0.047652 -0.13763762 0.17453592 -0.12955366
engagement -0.026786229 0.19097495 -0.011081571 0.11905148 -0.05171072 -0.020057265 -0.22510809 -0.19601971 0.13433984 0.13338134 -0.046785235 -0.043229003 0.02753224 -0.049461875 -0.1412254 0.14952505 -0.009674277 -0.08989377 -0.12780035 0.36113015 0.08213925 -0.30103546 0.03258693 0.106887534 0.11204726 0.025854528 0.22547436 0.02438769 0.0065992973 0.012737981 0.1243065 -0.022267554 -0.03598463 -0.0013067891 0.24678305 0.14313535 0.106432945 0.06974943 -0.23235984 -0.21610688 -0.07068311 -0.033396047 -0.011420739 0.03431459 -0.3322871 0.095952034 0.15002468 -0.0888304 0.0029477174 -0.18870999 -0.10874674 -0.114280745 -0.17933585 -0.15591106 0.06321749 -0.093197055 -0.059390675 0.07529689 -0.2976536 0.22512704 -0.054854695 -0.28109086 -0.0385851 0.30392528 0.04780633 -0.0014496198 0.022665069 -0.009765515 0.007794051 -0.04566742 -0.08223923 -0.020786693 -0.074768834 0.018885726 0.062036738 0.23076642 -0.086967 -0.014866383 -0.020456621 -0.0073316675 0.24704787 -0.2560072 0.027581247 -0.06277161 -0.03336342 0.012775074 -0.03169061 -0.03575459 -0.06373711 -0.08821808 0.036565356 -0.050949376 0.14295849 0.008436631 0.19290066 -0.1327925 -0.04738953 -0.12898518 0.1724117 -0.13014133
remote -0.022370126 0.1785444 -0.017195314 0.11132507 -0.050090853 -0.02021169 -0.21450418 -0.18594584 0.12076444 0.117690645 -0.047610577 -0.03978215 0.025377885 -0.03983903 -0.13442655 0.14565119 -0.0065764417 -0.07757184 -0.11602264 0.33198893 0.07499867 -0.276973 0.030263416 0.10251105 0.102167256 0.02690496 0.21364395 0.024928523 0.006196024 0.0076548327 0.10600789 -0.02012657 -0.029302895 -0.003907018 0.22343683 0.13600431 0.10065745 0.07140929 -0.21684502 -0.20429422 -0.06736133 -0.031143937 -0.017586788 0.026150191 -0.30978644 0.09464763 0.13484347 -0.07945596 0.009294102 -0.16996363 -0.09737876 -0.107029416 -0.16345355 -0.14550999 0.06101816 -0.081689544 -0.05880328 0.07153242 -0.2776942 0.21078944 -0.044302806 -0.26229575 -0.035152525 0.2892076 0.045633864 0.0019114795 0.019527245 -0.018178493 0.00810407 -0.03904074 -0.073909275 -0.022336867 -0.0695269 0.014870617 0.059354145 0.21629378 -0.0782657 -0.014417201 -0.008236946 -0.014895642 0.21891148 -0.23321413 0.023074748 -0.056678563 -0.031874247 0.016742364 -0.0262152 -0.029851409 -0.06722387 -0.08354616 0.03475547 -0.051430482 0.13283928 0.014745754 0.1812283 -0.12240682 -0.046913583 -0.1211268 0.15130545 -0.12536773
study -0.032151233 0.20505184 -0.013529355 0.12344289 -0.060395196 -0.024490036 -0.23530617 -0.21424004 0.14019948 0.13460475 -0.05627174 -0.051830214 0.018991847 -0.0511706 -0.16101001 0.16864464 -0.008800859 -0.093461186 -0.13021125 0.39218214 0.087356806 -0.317108 0.030950595 0.12070489 0.11764964 0.031183083 0.23869294 0.02792433 -0.0008094777 0.011626773 0.12613823 -0.019569363 -0.040089533 -0.008626618 0.2599249 0.15142018 0.116815604 0.08054362 -0.24856348 -0.2371515 -0.07735607 -0.03284393 -0.014455358 0.03219448 -0.35181993 0.10341892 0.16117302 -0.0932022 -0.001158699 -0.20763068 -0.11668536 -0.11584137 -0.19505303 -0.1620291 0.06486061 -0.09940299 -0.063408256 0.084015265 -0.32267642 0.23905084 -0.059733316 -0.30873835 -0.04455585 0.33119428 0.050387405 -0.0066206544 0.027451318 -0.018864006 0.011826386 -0.054762084 -0.091159284 -0.032172557 -0.08399133 0.020857524 0.06951216 0.25536808 -0.09510904 -0.018299017 -0.01832457 -0.014146714 0.25928304 -0.27723056 0.026166355 -0.06368793 -0.040768906 0.017186332 -0.025390193 -0.040351093 -0.07433244 -0.09435988 0.040499486 -0.052022774 0.15922862 0.017240424 0.21612598 -0.13873754 -0.04200797 -0.14230911 0.1818905 -0.1385051
family -0.032051075 0.19321369 -0.016027799 0.1134167 -0.054163784 -0.022540133 -0.22716779 -0.19279231 0.12759995 0.13293588 -0.045554906 -0.050372552 0.026197782 -0.04165303 -0.14186813 0.16068031 -0.013678183 -0.086298585 -0.1252688 0.36515853 0.076095104 -0.2977284 0.029251717 0.11543872 0.11567562 0.032509666 0.22346593 0.022092286 0.0029330163 0.014040774 0.11726006 -0.02576994 -0.03256137 -0.0067751594 0.24251842 0.14607854 0.10924013 0.0705127 -0.23293923 -0.21790037 -0.07487752 -0.026805893 -0.010839666 0.029005079 -0.33065048 0.09941063 0.14590044 -0.08569156 0.0024829465 -0.18253092 -0.10075328 -0.114852265 -0.18136072 -0.15117282 0.063890986 -0.095619224 -0.061860498 0.0756043 -0.30707046 0.2265994 -0.056673005 -0.2842302 -0.031541586 0.29981637 0.05503005 -0.0027729254 0.026942275 -0.014375935 0.0043156818 -0.0419854 -0.08108585 -0.027546272 -0.07498703 0.018503021 0.07074766 0.23521124 -0.08602621 -0.014070425 -0.010608504 -0.015849067 0.23636797 -0.25491744 0.02393928 -0.062125325 -0.028714169 0.018650953 -0.020302806 -0.034477867 -0.07096193 -0.08934503 0.044336252 -0.04961009 0.1385631 0.010100111 0.1945563 -0.13047753 -0.039318733 -0.12844151 0.16361694 -0.12877826
level -0.031283826 0.21240589 -0.0153570855 0.1239383 -0.06305056 -0.0169564 -0.24203768 -0.21767081 0.13568772 0.13433115 -0.04982343 -0.046830166 0.020432966 -0.047046278 -0.15515412 0.16560856 -0.0053073387 -0.096132606 -0.13406667 0.39524543 0.089674875 -0.32694373 0.03210878 0.1271987 0.12886281 0.028503306 0.24645837 0.0184217 0.0076292977 0.015083432 0.13350055 -0.02309321 -0.034959063 -0.010633282 0.25809848 0.15722764 0.11630843 0.08022435 -0.25014958 -0.23916738 -0.08088754 -0.035252675 -0.017036531 0.03518984 -0.3547808 0.11115918 0.1595766 -0.09773043 0.006149208 -0.20661223 -0.1126065 -0.11739109 -0.19396704 -0.1655508 0.06524556 -0.09991584 -0.06543115 0.08109125 -0.3278586 0.2436126 -0.057657797 -0.30685154 -0.040056933 0.3352832 0.060707074 -0.0066475263 0.024956284 -0.0172223 0.0102870595 -0.05288811 -0.08961789 -0.03110481 -0.08690571 0.01679354 0.0774968 0.25253463 -0.08610915 -0.015929837 -0.019716568 -0.014474094 0.26698133 -0.2733033 0.023182396 -0.06354553 -0.04020784 0.021484727 -0.030194204 -0.040862758 -0.07376515 -0.09906655 0.048614606 -0.05930793 0.15137456 0.012141037 0.21184514 -0.13611118 -0.043161422 -0.145551 0.18582687 -0.13590367
live -0.026105642 0.17590778 -0.01844298 0.10767705 -0.05942255 -0.015500503 -0.21185625 -0.18664701 0.118170634 0.118138865 -0.04575987 -0.042954803 0.019108424 -0.0359777 -0.13224499 0.14036171 -0.009182855 -0.07430939 -0.11855607 0.33626848 0.07266849 -0.28175107 0.021942768 0.10978667 0.10514835 0.018232074 0.20886831 0.02433955 0.004842471 0.010443671 0.10501873 -0.02167276 -0.028308097 -0.0062994035 0.2283923 0.13429359 0.101103425 0.07193315 -0.21811832 -0.20261332 -0.06986928 -0.029339675 -0.009565943 0.034671575 -0.31034744 0.09299072 0.12979141 -0.078355655 0.0031293298 -0.174933 -0.10072048 -0.10816559 -0.1610417 -0.14381628 0.06302515 -0.09136038 -0.056505386 0.06764503 -0.2849307 0.21363375 -0.043971166 -0.27129012 -0.036270432 0.28477073 0.04761297 -0.004840515 0.028048513 -0.018145334 0.009815251 -0.046254892 -0.07869448 -0.02263071 -0.07276593 0.02167988 0.05621508 0.21673107 -0.08133416 -0.016026037 -0.013926413 -0.0077803596 0.22817384 -0.24115318 0.016245767 -0.052209556 -0.031123713 0.014298976 -0.026898582 -0.035115257 -0.057276253 -0.07874051 0.04005665 -0.05438525 0.1336992 0.007496498 0.17724222 -0.12540573 -0.04169357 -0.12175538 0.15402251 -0.12503818
job -0.03339664 0.20196505 -0.014560523 0.12377282 -0.054883897 -0.01861884 -0.23085041 -0.20453969 0.13050535 0.13461205 -0.053072676 -0.043491554 0.023067461 -0.045687824 -0.15188608 0.1642801 -0.008450715 -0.08321583 -0.12785746 0.36636704 0.07905601 -0.30034843 0.026851932 0.11159512 0.11155161 0.024240399 0.23554668 0.024575045 0.0047436757 0.012783963 0.12665449 -0.021160373 -0.03839734 -0.0008218821 0.2516105 0.1444093 0.1103598 0.07687104 -0.2382533 -0.21979338 -0.07436362 -0.03476719 -0.018600406 0.034014322 -0.3426103 0.10418606 0.14515273 -0.09733605 0.00837206 -0.19539003 -0.114384755 -0.11231095 -0.18892936 -0.15840787 0.06425973 -0.09279057 -0.06318243 0.08237933 -0.31146303 0.23372307 -0.051569536 -0.29554823 -0.035778802 0.31502113 0.053611644 -0.0007910392 0.023618601 -0.009808529 0.013910575 -0.0440413 -0.08891238 -0.029596258 -0.07958922 0.015427377 0.06327684 0.24015123 -0.08513639 -0.006847372 -0.019935805 -0.013943141 0.24727306 -0.26110703 0.02893926 -0.062023886 -0.030156394 0.0165724 -0.031867623 -0.035900347 -0.066428795 -0.09744289 0.043008577 -0.053224295 0.14240512 0.01616374 0.20543616 -0.13287714 -0.039874192 -0.12953089 0.17184964 -0.12871519
improve -0.0343164 0.19765373 -0.015978137 0.12182949 -0.060444325 -0.020178605 -0.23277587 -0.20545845 0.1347766 0.13382876 -0.05083788 -0.051953867 0.02315115 -0.04473167 -0.15537104 0.16561365 -0.011951876 -0.09034389 -0.12442002 0.375874 0.079873234 -0.31441122 0.028859323 0.12115208 0.12525651 0.022875655 0.23762701 0.018864447 0.0009179417 0.011885875 0.124463856 -0.023583896 -0.038528062 -0.0025685702 0.25206327 0.15356475 0.10815906 0.07398389 -0.24261281 -0.23157284 -0.07864676 -0.029590467 -0.016788831 0.035305426 -0.3440593 0.10543903 0.15644415 -0.09201522 0.0023909782 -0.19542837 -0.10569 -0.1202419 -0.18892764 -0.16308996 0.062697954 -0.09095723 -0.05840583 0.08321287 -0.31889886 0.23786016 -0.053277355 -0.30487964 -0.03360568 0.32560554 0.053705867 0.0032050686 0.026445314 -0.020102022 0.012656424 -0.049989656 -0.09284169 -0.027720243 -0.08221738 0.016778825 0.06765174 0.24327973 -0.09259178 -0.014303832 -0.010314056 -0.01376562 0.25909978 -0.27144408 0.026466016 -0.06645542 -0.03411102 0.020543147 -0.026178231 -0.03693301 -0.0675843 -0.09792034 0.045722645 -0.056241762 0.14591652 0.0093277125 0.20784992 -0.13317905 -0.048604097 -0.14150222 0.18077654 -0.13678908
examine -0.028348941 0.19011071 -0.01270332 0.11193887 -0.05252962 -0.013389458 -0.2147655 -0.19268273 0.12551078 0.12644061 -0.05187682 -0.050661433 0.01886577 -0.04417777 -0.14357796 0.15293849 -0.012852611 -0.08662692 -0.11986422 0.34735698 0.08004916 -0.2931796 0.033842355 0.10701887 0.11172793 0.029382719 0.22481802 0.017594991 0.0044237818 0.010063118 0.111637734 -0.0249294 -0.034307804 -0.00080009317 0.23190375 0.13874292 0.103270106 0.07407614 -0.22422571 -0.20878193 -0.07227093 -0.028101673 -0.012627264 0.030829072 -0.32301494 0.10074883 0.14557414 -0.089945875 0.010700208 -0.18535537 -0.10213818 -0.10414653 -0.17316383 -0.14987889 0.06434608 -0.09068357 -0.054526646 0.080596395 -0.29583266 0.21994677 -0.04976797 -0.2789595 -0.032498457 0.2964702 0.05103438 -0.0004205339 0.025819398 -0.017560782 0.009005806 -0.045945678 -0.08204851 -0.022764463 -0.069971755 0.019523393 0.05807891 0.22978823 -0.084117845 -0.014012201 -0.018141693 -0.0055778557 0.23470777 -0.24381876 0.027914468 -0.061789326 -0.029865898 0.012859086 -0.02540865 -0.031757638 -0.06617905 -0.088457026 0.03383958 -0.051088057 0.14338082 0.006519506 0.1942685 -0.12604448 -0.042874992 -0.12839371 0.16729559 -0.1258379
disease -0.03301934 0.19887114 -0.023839138 0.118354656 -0.06389817 -0.012929573 -0.23222378 -0.19280677 0.12134119 0.12866153 -0.04782296 -0.043388013 0.016247364 -0.046898276 -0.14406817 0.15831484 -0.011068398 -0.08023181 -0.12526484 0.35933092 0.08534947 -0.2936433 0.029951807 0.11717217 0.11135919 0.024540775 0.22873095 0.023646135 -0.0011953524 0.006418066 0.117988735 -0.020838596 -0.028573532 -0.005237622 0.2426588 0.14606899 0.10243036 0.07434081 -0.22545695 -0.22516191 -0.06982718 -0.02976017 -0.011674192 0.03017648 -0.3283071 0.10156227 0.14475916 -0.08496609 0.01132687 -0.19265483 -0.108783565 -0.1078578 -0.1800701 -0.15427096 0.065357365 -0.09008211 -0.064102404 0.08351204 -0.30144277 0.2234378 -0.048005063 -0.2885531 -0.04043493 0.30867848 0.056940798 -0.0067513874 0.02819659 -0.02210331 0.0076268855 -0.04875602 -0.08010808 -0.027238833 -0.079865836 0.023017371 0.06465608 0.23199408 -0.09119693 -0.0060547343 -0.0076999 -0.008861861 0.24195142 -0.25061616 0.015874155 -0.06356015 -0.032354303 0.012782957 -0.022115026 -0.03411144 -0.06659761 -0.09481628 0.03999413 -0.048772935 0.15019275 0.013849767 0.1983283 -0.12764463 -0.04033257 -0.1322311 0.16375579 -0.12956715
estimate -0.023579841 0.18818404 -0.017949674 0.113352776 -0.058546066 -0.02198616 -0.22917713 -0.18964785 0.1182989 0.13501145 -0.0489549 -0.044054393 0.025052201 -0.04008894 -0.15129277 0.15512349 -0.009006372 -0.083368115 -0.1288774 0.36658967 0.07519342 -0.30115274 0.031459864 0.109932326 0.12154743 0.030655699 0.2305621 0.018244522 0.002920585 0.008260974 0.120334424 -0.02154312 -0.041749578 -0.006350288 0.2494144 0.14724556 0.10617226 0.06778487 -0.23414227 -0.22312717 -0.07316541 -0.030721724 -0.018726286 0.028039765 -0.3351071 0.10204661 0.14559396 -0.09183549 0.01186593 -0.18722454 -0.10542861 -0.11191103 -0.17910956 -0.15334974 0.06774359 -0.09227423 -0.0668005 0.080851614 -0.30065036 0.22820936 -0.052684136 -0.282069 -0.0445867 0.3108421 0.053659204 -0.0005859617 0.01845989 -0.018157035 0.0060367384 -0.04200003 -0.08749624 -0.029513229 -0.07496918 0.015703734 0.06829616 0.23020639 -0.08446193 -0.013550728 -0.008151533 -0.0070428103 0.24509755 -0.25595713 0.027357107 -0.056411307 -0.03838194 0.014974732 -0.027739394 -0.033586152 -0.07068291 -0.09697982 0.039365046 -0.058846094 0.1471656 0.0123092 0.20034084 -0.13426413 -0.049617656 -0.12968712 0.17100435 -0.13042283
training -0.02728731 0.19567314 -0.017167753 0.11916324 -0.054904845 -0.0179322 -0.21913818 -0.19621083 0.1272685 0.13390855 -0.051044706 -0.04487877 0.022375518 -0.045353167 -0.14665988 0.15109946 -0.009437719 -0.07909507 -0.12358491 0.3645143 0.08618066 -0.2917157 0.027647937 0.1111633 0.10921786 0.026452601 0.22197281 0.02196553 0.008202531 0.009068307 0.121834196 -0.020837849 -0.03203373 -0.009456145 0.24275768 0.14816196 0.10151151 0.06598024 -0.22837333 -0.21872965 -0.08012264 -0.036473818 -0.014885702 0.03233871 -0.33228022 0.096636266 0.14771807 -0.086305365 0.010632845 -0.18914963 -0.10421643 -0.11639205 -0.18097052 -0.14961445 0.0649678 -0.08999012 -0.062341034 0.079781525 -0.30361485 0.22050932 -0.051719565 -0.28814667 -0.035795018 0.29676953 0.05485927 0.0009273059 0.025579741 -0.0154520925 0.008067911 -0.04087957 -0.08151314 -0.022771426 -0.06984973 0.022301013 0.067009255 0.2341148 -0.08489565 -0.008369148 -0.016014276 -0.014445336 0.24327953 -0.24846214 0.028180176 -0.058112998 -0.028245233 0.014575751 -0.022435103 -0.030608473 -0.06612151 -0.09484597 0.045827396 -0.0492437 0.14834327 0.008431691 0.19854261 -0.13194619 -0.039508834 -0.132399 0.17138903 -0.12983218
factor -0.030534156 0.20738642 -0.0207143 0.12639654 -0.058792453 -0.020239431 -0.24646407 -0.21146871 0.1425059 0.13818417 -0.05368395 -0.0483887 0.021166893 -0.043214563 -0.15568234 0.17469975 -0.012269464 -0.08921455 -0.13406655 0.40184563 0.08738905 -0.33048925 0.036746483 0.12218928 0.12738486 0.02464392 0.2447837 0.022685327 0.008292302 0.008863857 0.13002765 -0.030107355 -0.036178533 -0.001938583 0.26610827 0.1560673 0.11316718 0.07575437 -0.24718347 -0.2485164 -0.08665611 -0.028566565 -0.013344359 0.034863587 -0.36285034 0.11244294 0.16508153 -0.10197417 0.0056930715 -0.20988147 -0.1160957 -0.12048175 -0.19574745 -0.16529322 0.0654419 -0.0985072 -0.06923271 0.085949905 -0.33593312 0.24467413 -0.06214355 -0.3154129 -0.034920324 0.33480296 0.059199512 -0.0012976038 0.02493758 -0.01595609 0.009788994 -0.047382846 -0.09023485 -0.033820234 -0.0831101 0.020398438 0.07443256 0.25666672 -0.09061404 -0.012186731 -0.015744293 -0.012666715 0.26129428 -0.27738187 0.025256041 -0.06189758 -0.03574766 0.023535643 -0.024836693 -0.03569248 -0.07737426 -0.10109808 0.047230292 -0.056681864 0.15989918 0.016245 0.21915004 -0.14060512 -0.048010852 -0.14133255 0.18630205 -0.13934025
cultural -0.030028295 0.19842273 -0.022166492 0.121961795 -0.05867942 -0.019324906 -0.22941868 -0.21008939 0.13865072 0.1336372 -0.04845935 -0.056027707 0.019533372 -0.045980405 -0.14859559 0.16907278 -0.012829167 -0.084365115 -0.13598959 0.37728953 0.08063202 -0.30814916 0.032796912 0.11353148 0.11930909 0.030373657 0.23429406 0.02354026 -0.00015976538 0.013767449 0.12153546 -0.020558601 -0.030384334 -0.003472784 0.25738364 0.14607722 0.10488375 0.07796263 -0.2406454 -0.23595144 -0.076543085 -0.027275214 -0.015258608 0.03071778 -0.34350824 0.10223786 0.15330908 -0.0980371 0.00408826 -0.19550323 -0.11649426 -0.11604827 -0.18937835 -0.15913142 0.066789575 -0.0974173 -0.06746515 0.08222715 -0.31547463 0.2413609 -0.055323027 -0.2966626 -0.033308033 0.32507545 0.048512723 -0.0028261244 0.031638592 -0.018864786 0.014213602 -0.0531164 -0.09202999 -0.028985864 -0.07793853 0.019267622 0.06969095 0.24818599 -0.087958105 -0.016518492 -0.014628188 -0.009436523 0.2524507 -0.27111354 0.021566557 -0.060162067 -0.032165945 0.018485012 -0.021490112 -0.03357916 -0.06788548 -0.09288534 0.0369817 -0.06069129 0.15584594 0.008640935 0.20734449 -0.13690312 -0.044686116 -0.13122961 0.17845102 -0.13907702
resource -0.035557587 0.21376355 -0.015885282 0.12506205 -0.0647859 -0.021657815 -0.24535991 -0.21078911 0.14178129 0.14109497 -0.059000947 -0.0551795 0.02865135 -0.051732313 -0.1616336 0.17304675 -0.012587687 -0.0916591 -0.14139238 0.3957821 0.09290806 -0.32325512 0.033945035 0.12654766 0.11952755 0.028072558 0.24298468 0.028305003 0.0074682315 0.006264148 0.12999266 -0.025296487 -0.03798185 -0.011432845 0.26646084 0.15262859 0.115578145 0.075808994 -0.25269875 -0.2442164 -0.07580308 -0.032191962 -0.013452347 0.041349057 -0.367171 0.10799505 0.16223726 -0.10107545 0.008688478 -0.20131357 -0.11359611 -0.12791178 -0.19162063 -0.16963716 0.07241901 -0.09654525 -0.066752955 0.08595719 -0.3304446 0.247291 -0.060385313 -0.31604227 -0.043473132 0.3343022 0.054369565 0.0035817805 0.02910322 -0.018961744 0.0047186273 -0.0435969 -0.094815575 -0.03232541 -0.086527035 0.025139235 0.07667521 0.25337547 -0.08930336 -0.015578287 -0.021336267 -0.011624173 0.26903188 -0.27711532 0.022124216 -0.061600786 -0.033554003 0.015670592 -0.030382356 -0.038228806 -0.072538264 -0.10334078 0.041429147 -0.05479037 0.15182494 0.0141963465 0.21959956 -0.13795988 -0.044730883 -0.13991304 0.18863621 -0.1419189
information -0.028485084 0.20435606 -0.018208446 0.12427269 -0.06462352 -0.01456539 -0.24440005 -0.20951742 0.13466634 0.13767901 -0.052613493 -0.04845872 0.028049795 -0.042336777 -0.1575343 0.17074846 -0.010269924 -0.08560016 -0.13757996 0.38528123 0.0912101 -0.31483367 0.026932402 0.12454901 0.1242271 0.025700297 0.23988615 0.022845423 0.0018741536 0.0045438823 0.12375505 -0.023813391 -0.03732757 -0.00665473 0.2646754 0.15008743 0.1070239 0.07446958 -0.23943712 -0.24104398 -0.08352365 -0.030477254 -0.009666081 0.03712052 -0.35824907 0.11056366 0.16138537 -0.09231531 0.008522083 -0.19894494 -0.11440073 -0.12323326 -0.18941036 -0.15790844 0.07141323 -0.09624608 -0.06515045 0.08151497 -0.32464033 0.24121174 -0.059533034 -0.30376318 -0.040972166 0.32851338 0.054203607 -0.004674511 0.026187856 -0.018459983 0.0035546217 -0.049360376 -0.088744566 -0.027383348 -0.08162672 0.016702315 0.07142198 0.2514789 -0.0858644 -0.015169466 -0.010360768 -0.011073787 0.25730482 -0.27438492 0.02732304 -0.065385796 -0.04003455 0.017191071 -0.029734898 -0.03415209 -0.076130606 -0.09482407 0.04249862 -0.059305694 0.15522245 0.012211801 0.20775527 -0.14072636 -0.053387538 -0.13881144 0.1755122 -0.14377601
economic -0.023544015 0.19737773 -0.017135615 0.115713686 -0.06255476 -0.020171968 -0.22395857 -0.2038623 0.13012744 0.12607282 -0.044353075 -0.04741129 0.02687084 -0.04843502 -0.14832233 0.16232389 -0.011703727 -0.086265035 -0.12877093 0.36662552 0.07576456 -0.30247346 0.026810428 0.11133938 0.11163248 0.02748953 0.22524816 0.01791578 0.00023461167 0.0049813064 0.115620464 -0.022924166 -0.03921499 -0.0032844301 0.23896319 0.14624321 0.108936176 0.070056915 -0.23245618 -0.22401302 -0.076065786 -0.03390486 -0.012056073 0.03601046 -0.33973858 0.10722997 0.15197562 -0.08579866 0.0070164804 -0.19293572 -0.103587404 -0.1109913 -0.18176726 -0.15140036 0.06391606 -0.097334325 -0.06464999 0.07928916 -0.3088095 0.2259073 -0.049962744 -0.2896157 -0.03516527 0.30579358 0.05056182 -0.0046225945 0.03039948 -0.016050627 0.007908154 -0.049019746 -0.08530012 -0.026325554 -0.07127881 0.023849739 0.063533105 0.23599423 -0.08176242 -0.013867657 -0.010522049 -0.010007229 0.24009831 -0.25560832 0.023898574 -0.06025931 -0.029612608 0.01822971 -0.024411239 -0.035101373 -0.07345815 -0.09016458 0.044610873 -0.057946008 0.14268893 0.015539675 0.19984823 -0.12596773 -0.040741805 -0.13336952 0.16953172 -0.13041328
framework -0.025083201 0.19268338 -0.014923846 0.119790696 -0.06290473 -0.020566158 -0.22721548 -0.20158269 0.13043892 0.13201594 -0.045432895 -0.051028423 0.023160562 -0.04294313 -0.14585929 0.15733233 -0.005528593 -0.08786795 -0.12532516 0.36521214 0.07913794 -0.29653203 0.03444737 0.11287425 0.1156792 0.02695706 0.2324739 0.017756969 0.0070780017 0.011421777 0.12405489 -0.03049675 -0.04008562 -0.003850283 0.2440536 0.14951223 0.110817514 0.0718662 -0.23024456 -0.22695838 -0.076261185 -0.03730816 -0.01614769 0.033679403 -0.34073746 0.10639263 0.14689077 -0.087341055 0.006339675 -0.18481958 -0.10972575 -0.10921205 -0.18432525 -0.15528935 0.061581314 -0.09269467 -0.061398152 0.08297737 -0.30366892 0.23038314 -0.05153493 -0.29023957 -0.03501352 0.3134634 0.051429123 0.0016651968 0.026324125 -0.021044929 0.0097592315 -0.044320267 -0.086030036 -0.024672953 -0.07623863 0.018989235 0.063945256 0.23037647 -0.083506785 -0.007423648 -0.008122576 -0.0054320116 0.2473967 -0.26162514 0.018763168 -0.06538104 -0.032094933 0.013339872 -0.022061072 -0.032637283 -0.06508504 -0.09294931 0.042289525 -0.05554679 0.14167877 0.0063969498 0.1987006 -0.12974061 -0.04438326 -0.13596016 0.17232817 -0.136193
also -0.03332991 0.2078323 -0.017620822 0.1240345 -0.056777716 -0.01436826 -0.2392463 -0.20525303 0.13387951 0.13558504 -0.056262344 -0.04555932 0.024737986 -0.041645836 -0.15795277 0.16445397 -0.014380944 -0.08550803 -0.12959643 0.38517705 0.08446721 -0.31137437 0.02765844 0.1205031 0.12432027 0.032746557 0.23711538 0.017928692 0.0065968507 0.015075166 0.12641326 -0.027672485 -0.035075333 -0.009151893 0.25631467 0.15507975 0.11513158 0.077267885 -0.24429771 -0.23048872 -0.077965125 -0.033109896 -0.018880697 0.03239453 -0.3493544 0.10317413 0.15234052 -0.092415996 0.005489122 -0.19795807 -0.113724254 -0.11444633 -0.19233361 -0.15908903 0.06859653 -0.10029529 -0.06875506 0.086980015 -0.31857616 0.23849036 -0.05948919 -0.3055673 -0.03487776 0.32445526 0.050251983 0.002253535 0.023948658 -0.020551665 0.013561352 -0.042254508 -0.08345615 -0.029332465 -0.08079304 0.014337865 0.07486207 0.24155448 -0.08528086 -0.012802382 -0.019404633 -0.008256557 0.25765333 -0.27420712 0.021283615 -0.058170255 -0.03634996 0.013966534 -0.027651552 -0.032271046 -0.074363396 -0.09307244 0.03813834 -0.060133412 0.14753874 0.015674489 0.2109927 -0.13960576 -0.04480721 -0.13434829 0.17818877 -0.13701443
development -0.033463385 0.20255484 -0.018862577 0.123898916 -0.05471631 -0.015421212 -0.23507755 -0.20694642 0.13176022 0.13410236 -0.047826886 -0.055034373 0.016839772 -0.048193734 -0.14910115 0.16550213 -0.010694018 -0.084262334 -0.13260047 0.38091904 0.08643391 -0.31097057 0.036253624 0.11304256 0.12138154 0.028205309 0.23397525 0.021268893 0.008238486 0.009872663 0.12095519 -0.02525344 -0.033405937 -0.006204491 0.25540107 0.1554885 0.111371376 0.079580545 -0.23785467 -0.23185103 -0.073155135 -0.0331194 -0.011582249 0.032263476 -0.34622458 0.11073429 0.15671417 -0.09707206 0.0036024372 -0.19424392 -0.11247767 -0.11807962 -0.18731865 -0.15394472 0.06290567 -0.10049146 -0.065892875 0.07934333 -0.31451896 0.23143965 -0.05218134 -0.3031131 -0.03375137 0.3196745 0.053806014 -0.0055426047 0.0312913 -0.019655006 0.0035327282 -0.052368045 -0.08749768 -0.028921705 -0.08169813 0.022867788 0.06970843 0.23840229 -0.090312265 -0.008735078 -0.011866103 -0.0063443594 0.24814501 -0.2631967 0.029325768 -0.06614883 -0.03402571 0.022230186 -0.023425195 -0.032793853 -0.07649687 -0.0935709 0.040327862 -0.056962706 0.15143342 0.010338658 0.20693517 -0.12867658 -0.046983674 -0.13761225 0.17243524 -0.13101089
elearning -0.034344353 0.19248746 -0.0115371905 0.11546284 -0.058540616 -0.013996602 -0.2338446 -0.19713642 0.1295055 0.13437979 -0.04570585 -0.047121342 0.028517112 -0.040980995 -0.14423333 0.15312245 -0.010211995 -0.08560961 -0.13354458 0.37178814 0.08383664 -0.31079984 0.035898164 0.11228165 0.1220479 0.030468777 0.23670733 0.019388916 0.0035391464 0.009090626 0.12466597 -0.024251387 -0.03849348 0.0018858792 0.24924558 0.1550299 0.102361284 0.07941178 -0.23936616 -0.22366089 -0.07500358 -0.03235596 -0.01777082 0.030808112 -0.34526196 0.09780209 0.14528814 -0.08909351 0.011189607 -0.1880879 -0.11307445 -0.11783924 -0.17968966 -0.15209955 0.06068106 -0.09641657 -0.060858253 0.07960883 -0.31226346 0.23486713 -0.0532737 -0.28906906 -0.04132546 0.307925 0.054417517 0.0019568629 0.02906309 -0.015375015 0.012332356 -0.04264192 -0.08817525 -0.023150876 -0.07647871 0.024208829 0.06822305 0.23655292 -0.08372012 -0.011474111 -0.009595323 -0.009483989 0.24971984 -0.2615319 0.02797805 -0.059478372 -0.034461018 0.020956365 -0.028954867 -0.03367327 -0.068649665 -0.096577756 0.04345656 -0.05603354 0.14418685 0.011302624 0.20644747 -0.12734899 -0.042718474 -0.13658573 0.17356849 -0.13414381
rate -0.03288499 0.18912338 -0.019422332 0.11780024 -0.057591207 -0.012106934 -0.21535228 -0.19403698 0.12444438 0.12721403 -0.0442098 -0.046644706 0.022613255 -0.04665649 -0.14141636 0.15554227 -0.01529724 -0.08505499 -0.11976071 0.3496614 0.07909736 -0.285316 0.024216294 0.109335445 0.110714346 0.024740687 0.22190928 0.020423846 0.0037150767 0.008974294 0.11513619 -0.025645226 -0.029054401 -0.0009501847 0.2345321 0.14121029 0.09916495 0.07056153 -0.21781357 -0.2196957 -0.07007795 -0.030667977 -0.013349708 0.03449488 -0.32240793 0.09635496 0.14131896 -0.091943875 0.008568845 -0.18690926 -0.10800147 -0.10691822 -0.1766673 -0.14881876 0.06594287 -0.088224344 -0.05424167 0.0793197 -0.29995355 0.21561132 -0.046088558 -0.2752212 -0.03678086 0.30193537 0.045314297 0.0005024135 0.021822948 -0.01838751 0.012271292 -0.041509133 -0.07874079 -0.024503885 -0.070388585 0.021148713 0.06847106 0.22267388 -0.080468684 -0.008245178 -0.015662167 -0.016644692 0.23758473 -0.2501595 0.017585697 -0.054474168 -0.035452444 0.02050587 -0.019247359 -0.029376937 -0.07086952 -0.0938303 0.03553042 -0.05304848 0.14424145 0.0077238884 0.18954223 -0.12272263 -0.042281665 -0.1233736 0.16912788 -0.13003221
practice -0.03185779 0.19943383 -0.020516705 0.11900443 -0.0624338 -0.0153191835 -0.23148304 -0.2017123 0.13251404 0.13629016 -0.049394332 -0.045925587 0.022600956 -0.04664196 -0.15134814 0.15742558 -0.0050460226 -0.09045688 -0.13236058 0.36624876 0.08029549 -0.3048694 0.025468523 0.11927862 0.115617305 0.031402007 0.22578794 0.026123123 0.0009777356 0.006699586 0.11783567 -0.03071043 -0.033909712 -0.0019787531 0.24633966 0.1454455 0.112802304 0.06968133 -0.23362911 -0.22290006 -0.06993442 -0.03636557 -0.011187661 0.03530153 -0.34281263 0.10759241 0.14496852 -0.08763259 0.0064421864 -0.18831629 -0.103970975 -0.117327675 -0.18762563 -0.15584908 0.06322039 -0.09082986 -0.059490487 0.0793318 -0.31077844 0.2330961 -0.054012638 -0.2901716 -0.03518912 0.30840316 0.047194894 -0.002464457 0.030285088 -0.012808076 0.007819533 -0.041333504 -0.09221497 -0.024368895 -0.074547164 0.015225408 0.06781402 0.2411762 -0.08260406 -0.016804416 -0.019392794 -0.0167141 0.245169 -0.2545513 0.026297616 -0.061597798 -0.028421631 0.021048106 -0.025900338 -0.03679249 -0.07052665 -0.0974912 0.04410533 -0.058597997 0.14149924 0.0059502707 0.19675666 -0.13429874 -0.04517366 -0.13320945 0.17214075 -0.1297608
many -0.02853886 0.19306011 -0.015801258 0.11857109 -0.0567295 -0.016590884 -0.22300248 -0.19453485 0.12538426 0.12560485 -0.0456637 -0.043485276 0.021823393 -0.04082848 -0.14469828 0.15100238 -0.011726459 -0.08834684 -0.12796555 0.35533243 0.0760401 -0.29676798 0.030866718 0.10958921 0.11598723 0.028807014 0.22499748 0.020732924 -0.0002807701 0.011823876 0.122196704 -0.02044309 -0.034925185 -0.002319382 0.23722412 0.1450081 0.107830666 0.06949822 -0.23010483 -0.2209378 -0.07142605 -0.026601989 -0.012039662 0.036000695 -0.32790092 0.09703523 0.14378965 -0.09021952 0.009501413 -0.181458 -0.10433326 -0.10766894 -0.17424516 -0.15028925 0.06089313 -0.09340762 -0.056329973 0.07233979 -0.295461 0.2252748 -0.050902825 -0.28813347 -0.035995927 0.30041233 0.04936937 -0.00021902825 0.023076046 -0.01954139 0.0092184255 -0.049858805 -0.08476341 -0.02681558 -0.07373287 0.014433791 0.069023825 0.22619905 -0.08141875 -0.010582928 -0.012080507 -0.007149181 0.24053915 -0.24915291 0.024838632 -0.064918004 -0.029068768 0.021336962 -0.026419044 -0.034883056 -0.06378864 -0.09298484 0.042687837 -0.0583379 0.1453931 0.010079996 0.19442588 -0.13094592 -0.041764773 -0.1303523 0.17064373 -0.12655176
young -0.030819887 0.19217409 -0.019403666 0.10970011 -0.060840644 -0.013255211 -0.21169983 -0.19572951 0.120336056 0.1199067 -0.0452013 -0.051663022 0.026257224 -0.046941295 -0.14448257 0.1520721 -0.013928411 -0.08447859 -0.121432036 0.35283282 0.078521244 -0.28720477 0.027802147 0.11048731 0.11304564 0.028395368 0.21900202 0.015535946 -0.0007768066 0.009549607 0.10988665 -0.021506753 -0.027810091 -0.003513805 0.23510051 0.14186591 0.10744713 0.06630003 -0.22164647 -0.21428758 -0.067582905 -0.029456425 -0.01419311 0.035809454 -0.31971872 0.09820679 0.1351577 -0.080776535 0.0065793525 -0.17748733 -0.10583699 -0.11042611 -0.17116772 -0.14944176 0.05816068 -0.090274714 -0.054405943 0.077719584 -0.2932911 0.21936522 -0.0532372 -0.27637842 -0.03610242 0.29631037 0.044671714 -0.0025058207 0.025977924 -0.018952496 0.005379936 -0.03922476 -0.078704886 -0.027912362 -0.07513754 0.019305393 0.0644678 0.22465782 -0.08259957 -0.007820771 -0.01804188 -0.010167124 0.23735034 -0.24091078 0.02029225 -0.06263943 -0.036605634 0.02088113 -0.02135552 -0.027738882 -0.070473254 -0.08371625 0.043829035 -0.054746337 0.14087017 0.007585135 0.19250073 -0.12931226 -0.04679325 -0.12569176 0.16838172 -0.12741052
centre -0.025531922 0.19572829 -0.020216327 0.11647078 -0.054932848 -0.01433343 -0.22283824 -0.19947566 0.12867181 0.13501573 -0.049267385 -0.0505762 0.018120212 -0.044767067 -0.1520574 0.16095644 -0.005421329 -0.09034093 -0.12785012 0.3652935 0.081167154 -0.3002853 0.030425066 0.1173087 0.11794305 0.02981214 0.22710948 0.027672125 0.002570497 0.0075257937 0.122047275 -0.02775551 -0.033924725 -0.0078399945 0.24780174 0.14903139 0.10321684 0.076414466 -0.23655821 -0.22868308 -0.07203346 -0.03047568 -0.018758478 0.03482729 -0.33807656 0.09795581 0.1488657 -0.09018936 0.000935962 -0.19493334 -0.10292707 -0.10960877 -0.1859804 -0.14911172 0.06372133 -0.09088788 -0.058111396 0.08162836 -0.30863965 0.2297673 -0.05864427 -0.2918311 -0.035197176 0.3050132 0.0547643 -0.002362069 0.022054948 -0.012748314 0.008732989 -0.050449315 -0.08854416 -0.024492629 -0.074228935 0.018587299 0.06947659 0.23915352 -0.08821984 -0.00858185 -0.01668969 -0.010665458 0.2490895 -0.25824732 0.025645416 -0.057666034 -0.033770077 0.020310907 -0.025383199 -0.032363925 -0.06625179 -0.0905692 0.04445409 -0.048228968 0.14362113 0.015537256 0.1987315 -0.13210861 -0.039586443 -0.12715982 0.17112996 -0.13053852
indicator -0.020783596 0.18834004 -0.017375803 0.11520713 -0.055792417 -0.020286087 -0.21958566 -0.18630067 0.12799197 0.12969404 -0.045132257 -0.049039863 0.023487074 -0.040732507 -0.14159985 0.15277481 -0.0076739877 -0.078597896 -0.12120998 0.35039032 0.08203121 -0.2814264 0.02916189 0.108379796 0.10485496 0.021580439 0.21340391 0.02587524 0.009566073 0.009334882 0.11358876 -0.021813763 -0.029776972 -0.009616894 0.23577526 0.13899106 0.10560589 0.06775426 -0.21724372 -0.20885898 -0.06728641 -0.03597414 -0.008928063 0.0277656 -0.3218961 0.10193494 0.13810766 -0.088044904 -0.00046350557 -0.18455009 -0.10414871 -0.10988919 -0.16966058 -0.15104075 0.065131344 -0.084392 -0.064443626 0.07371812 -0.29384694 0.21248983 -0.05601147 -0.27919433 -0.03225188 0.29338452 0.050324816 -0.0050489474 0.021330375 -0.013947939 0.010084822 -0.044143103 -0.08352019 -0.030471606 -0.068673275 0.018517187 0.06691229 0.22316867 -0.0785031 -0.016747132 -0.013590732 -0.008829398 0.22947785 -0.24255958 0.0207632 -0.060627144 -0.025293117 0.01963424 -0.021374116 -0.03456681 -0.06376247 -0.08833096 0.04053914 -0.057049096 0.13979079 0.015444076 0.19136184 -0.12925923 -0.04151471 -0.12521043 0.16565527 -0.12094998
well -0.03206319 0.19705077 -0.011909507 0.121836625 -0.06005431 -0.016550262 -0.23110479 -0.20585279 0.12920116 0.13597596 -0.05161622 -0.05228374 0.02395026 -0.046636898 -0.15037394 0.15602806 -0.013168488 -0.088541955 -0.12650207 0.36525154 0.079567 -0.3029788 0.0262016 0.112267934 0.11923617 0.026754098 0.22966924 0.02080395 -0.0014898184 0.00471621 0.11992232 -0.022008844 -0.03260125 -0.0034851753 0.24616721 0.1436548 0.103213 0.07797872 -0.23405533 -0.22425605 -0.07708846 -0.03168644 -0.01661707 0.035719797 -0.33790305 0.10528743 0.1490294 -0.09483088 5.098925e-05 -0.18918052 -0.10755379 -0.114785254 -0.18465921 -0.15467022 0.06997798 -0.09214343 -0.06267527 0.081477806 -0.3050366 0.23197575 -0.051981 -0.29080066 -0.03333246 0.3153035 0.051910568 0.001728777 0.02175046 -0.011223566 0.0076399175 -0.045487404 -0.08351981 -0.029448036 -0.073530376 0.012943589 0.06195786 0.23442312 -0.08852258 -0.016742988 -0.017556854 -0.0055420087 0.25158072 -0.2586708 0.021602126 -0.057109896 -0.029809924 0.018561687 -0.022594843 -0.030194726 -0.07208069 -0.09039887 0.04470017 -0.05507559 0.1429753 0.006471948 0.20444597 -0.13426419 -0.047035802 -0.13620354 0.17626399 -0.13039498
child -0.03153362 0.19315808 -0.016772263 0.1158591 -0.058934785 -0.02091527 -0.21767099 -0.1918788 0.12227194 0.12126982 -0.042891204 -0.049819276 0.0251695 -0.04314338 -0.1448663 0.1533576 -0.004346886 -0.07740269 -0.12237992 0.35378614 0.08184267 -0.29047018 0.03259416 0.11624027 0.11216186 0.022556331 0.21979158 0.021897195 0.001801902 0.00800021 0.116404384 -0.028097376 -0.029114455 -0.0070773447 0.24261029 0.13935974 0.09914261 0.07343349 -0.2237355 -0.21789896 -0.07539098 -0.026386548 -0.013786692 0.03205294 -0.31830484 0.10252129 0.14542593 -0.083606616 0.006727244 -0.1832426 -0.10453155 -0.10345958 -0.17010906 -0.14833276 0.059139844 -0.087546065 -0.05863656 0.07196854 -0.293605 0.22306244 -0.051808648 -0.2759354 -0.03588989 0.30132073 0.046674367 -0.002270065 0.026549218 -0.012231343 0.0040145623 -0.043660443 -0.08257708 -0.024955297 -0.0751076 0.016205097 0.065147504 0.22560032 -0.07833286 -0.008047256 -0.018117579 -0.010375132 0.23992027 -0.24544178 0.025874779 -0.056298584 -0.035050876 0.011640043 -0.02525701 -0.03459813 -0.06336406 -0.0883451 0.034610905 -0.05657762 0.14440994 0.005808052 0.18788563 -0.12833132 -0.041080438 -0.12731442 0.16171281 -0.13153842
analysis -0.03022273 0.19739334 -0.01739197 0.12324778 -0.053343523 -0.014691162 -0.22800086 -0.19521768 0.1284489 0.13050193 -0.051981937 -0.048501685 0.024410885 -0.038574982 -0.14422944 0.1568055 -0.008177767 -0.08086073 -0.12788226 0.3666393 0.08724015 -0.3040115 0.034542285 0.11613785 0.115287304 0.023247939 0.22839221 0.020583333 -7.334074e-05 0.0047064926 0.123830386 -0.028199883 -0.04003909 8.312877e-05 0.24810813 0.14243725 0.109096736 0.06861231 -0.23486054 -0.22753453 -0.07862321 -0.031152336 -0.016707314 0.032019794 -0.34026772 0.09944836 0.1431893 -0.09261509 0.0062019397 -0.18843275 -0.10443781 -0.118224666 -0.18397829 -0.14911118 0.06300377 -0.09445482 -0.058943845 0.073940404 -0.30414486 0.22403182 -0.048686773 -0.2932783 -0.035688274 0.30326515 0.050096307 0.002201102 0.026260503 -0.018559566 0.009895162 -0.047526337 -0.079834394 -0.029374752 -0.07891085 0.016543517 0.07190828 0.24004842 -0.08571573 -0.01041539 -0.0156303 -0.0072540725 0.24138984 -0.256028 0.025848532 -0.056118768 -0.02994774 0.02124229 -0.02315899 -0.032348283 -0.06447138 -0.09385664 0.03491707 -0.050401274 0.14939408 0.0115103 0.19451141 -0.1343159 -0.047815163 -0.13329336 0.16859706 -0.12611824
identify -0.023660481 0.19077516 -0.014990424 0.11471819 -0.05811043 -0.011844574 -0.21829124 -0.19360104 0.12166287 0.12608473 -0.04316175 -0.04543463 0.022246866 -0.04740926 -0.1418534 0.15667911 -0.009461257 -0.08545234 -0.12197761 0.3516946 0.08325829 -0.29334047 0.03436687 0.10818049 0.10969372 0.029232156 0.22027938 0.022327438 0.0035550576 0.011996425 0.11211446 -0.027016375 -0.03579334 -0.007382186 0.23819652 0.13605243 0.106036074 0.06495572 -0.22101595 -0.21211621 -0.07808958 -0.03350211 -0.0065890867 0.032081608 -0.32345474 0.099758334 0.14627416 -0.084468864 5.604734e-05 -0.17873675 -0.10770805 -0.10790203 -0.17336968 -0.14574265 0.058119684 -0.08589938 -0.05948566 0.07592329 -0.29173884 0.21358515 -0.053156924 -0.2759091 -0.039290253 0.2953171 0.04582594 -0.0050953473 0.024126844 -0.013664258 0.007047953 -0.03971612 -0.083920434 -0.02729053 -0.074931525 0.02241924 0.06576181 0.22791958 -0.08600869 -0.013832737 -0.014697525 -0.010737422 0.24067914 -0.24941 0.019742105 -0.058276687 -0.033466686 0.013218709 -0.02880336 -0.030010235 -0.067266986 -0.087059624 0.039277665 -0.05299448 0.14328839 0.010281156 0.18970716 -0.13069366 -0.043886196 -0.1280708 0.16172662 -0.12945727
time -0.02969715 0.19886175 -0.014424378 0.12446431 -0.058083806 -0.01892707 -0.2274393 -0.20642331 0.12842503 0.13670032 -0.053783696 -0.054332856 0.026259484 -0.039785087 -0.1536407 0.15791817 -0.0051900335 -0.08299731 -0.12568681 0.36728892 0.08120525 -0.310348 0.029088069 0.12078157 0.12097353 0.029616175 0.2286633 0.0190279 0.007729123 0.007298754 0.12531167 -0.020172944 -0.03277625 -0.009148648 0.25266084 0.14793311 0.11171452 0.07534807 -0.23567848 -0.22492053 -0.07232509 -0.028177358 -0.016268773 0.035856646 -0.34175014 0.09777177 0.15139265 -0.090734504 0.0028690102 -0.19118907 -0.11143369 -0.11136796 -0.18403429 -0.15492105 0.064792536 -0.09491272 -0.060195975 0.08201667 -0.31062075 0.22727732 -0.058816433 -0.28956226 -0.03742304 0.318322 0.051562652 -0.006329725 0.02415596 -0.019536942 0.010350264 -0.048313808 -0.08765271 -0.031660136 -0.07905378 0.01779325 0.06508385 0.24331956 -0.08842641 -0.010824965 -0.013651419 -0.008015753 0.24634711 -0.26501217 0.025432331 -0.058087315 -0.036343142 0.01905179 -0.021183748 -0.03393798 -0.06436241 -0.093443714 0.037813682 -0.051821865 0.14314206 0.011432024 0.20715044 -0.1276127 -0.048324645 -0.13279809 0.17142098 -0.13750932
wellbeing -0.025019312 0.17613602 -0.018235497 0.10747148 -0.04934185 -0.021336585 -0.20911597 -0.18848786 0.11896069 0.123151965 -0.04664607 -0.046870627 0.01885741 -0.043108758 -0.13289934 0.14790028 -0.007077936 -0.07648008 -0.11128877 0.34084836 0.07019318 -0.27487445 0.022153206 0.10451496 0.11073551 0.02860471 0.20712258 0.020110156 0.003629977 0.014097087 0.11066606 -0.022339117 -0.03050331 -0.0019941486 0.22951674 0.13365695 0.096632056 0.06689504 -0.215987 -0.20774615 -0.067339525 -0.026330216 -0.012522786 0.035841554 -0.3069074 0.097075865 0.13638443 -0.07877624 0.007129651 -0.17339607 -0.09697768 -0.10409402 -0.16811916 -0.14268553 0.057602838 -0.08414361 -0.052778058 0.075255305 -0.2786522 0.20513451 -0.04807309 -0.26709035 -0.03611225 0.29004064 0.051754586 0.0019023016 0.020133328 -0.015663447 0.00603816 -0.041538693 -0.08073651 -0.022805694 -0.071637206 0.017942473 0.064142555 0.2208878 -0.07494 -0.011078671 -0.016430397 -0.013562461 0.23109427 -0.2396922 0.024334569 -0.053034745 -0.027791703 0.016483862 -0.020011041 -0.031848904 -0.061107438 -0.08921263 0.04021864 -0.053472746 0.13197143 0.0057721883 0.18108992 -0.12530339 -0.043880485 -0.11836457 0.16168988 -0.12586035
gap -0.023963127 0.19506548 -0.014358673 0.11227535 -0.056098394 -0.01805436 -0.22713983 -0.19368245 0.13083501 0.1310921 -0.04856756 -0.049246218 0.024586895 -0.039713047 -0.15162776 0.16222593 -0.011682479 -0.08415588 -0.120975345 0.36942276 0.08324931 -0.2949196 0.032574642 0.11547931 0.11019787 0.026321866 0.2268736 0.020033048 0.0011846861 0.010865854 0.122920915 -0.021032652 -0.028067386 -0.0104975095 0.24370225 0.14710906 0.10737898 0.07647105 -0.23576398 -0.22370438 -0.079932004 -0.030029064 -0.017873144 0.02899664 -0.3399085 0.10105441 0.14344713 -0.0905053 0.0020346849 -0.18862495 -0.10299288 -0.11295703 -0.17567652 -0.14790897 0.059908237 -0.08979351 -0.06373786 0.07894322 -0.3051766 0.22167711 -0.058694776 -0.29176167 -0.03435576 0.3052221 0.05157348 0.0003004986 0.025668776 -0.011355687 0.0046361657 -0.045085687 -0.080859646 -0.030202413 -0.07636574 0.015653474 0.072108686 0.23088123 -0.0877345 -0.014818814 -0.009035039 -0.0076692146 0.24462199 -0.25718972 0.018965043 -0.058868084 -0.035973202 0.02221788 -0.028982695 -0.028495569 -0.064253904 -0.09871098 0.042305194 -0.048161246 0.14076066 0.011042844 0.20142482 -0.12867247 -0.042380802 -0.12633277 0.17591047 -0.13208629
care -0.027915934 0.19578597 -0.023666302 0.118371956 -0.06335995 -0.016903099 -0.22598465 -0.20709005 0.13528346 0.13492414 -0.051939406 -0.05203078 0.0240094 -0.04566663 -0.15384197 0.1550451 -0.014631988 -0.08473826 -0.12584162 0.37202194 0.080808565 -0.3058374 0.03362699 0.11827923 0.11352721 0.0228132 0.23151621 0.0224373 -0.000752657 0.015149698 0.117501795 -0.022190392 -0.030638447 -0.00786153 0.25615814 0.15072899 0.10852117 0.069173105 -0.23594904 -0.2326112 -0.070888 -0.027731007 -0.017136348 0.037213754 -0.3373002 0.10946698 0.1539079 -0.09356253 0.004727468 -0.189991 -0.10791502 -0.11361276 -0.18960214 -0.15108691 0.06916106 -0.093415715 -0.061945923 0.07934389 -0.31127113 0.2271524 -0.055196285 -0.29690644 -0.032222267 0.31278867 0.055865563 -0.0027178992 0.023359079 -0.012488725 0.010310571 -0.04886762 -0.089001626 -0.025782008 -0.07633021 0.016709788 0.06587849 0.24107438 -0.09069729 -0.0075404015 -0.009341636 -0.007833296 0.24466941 -0.25783753 0.025294304 -0.05900851 -0.03484177 0.021636521 -0.024539446 -0.03625041 -0.07356374 -0.09006374 0.037106644 -0.055656258 0.14920968 0.00942842 0.20346408 -0.1293808 -0.049738523 -0.13044865 0.17373598 -0.13886997
expectancy -0.031693716 0.17316483 -0.011196715 0.10488196 -0.05787928 -0.022023698 -0.21233884 -0.17430079 0.108548135 0.11747395 -0.043188587 -0.04696295 0.027070425 -0.039173976 -0.13574322 0.14907041 -0.0072018276 -0.08105993 -0.1166244 0.34463584 0.070886225 -0.2775203 0.023005767 0.10287456 0.110833086 0.022856664 0.2079099 0.019968769 0.008492631 0.0046968944 0.1157416 -0.02068905 -0.039559823 -0.009879127 0.22989683 0.13505879 0.09725627 0.06347474 -0.21667297 -0.2086507 -0.07498862 -0.031485412 -0.012350769 0.026471026 -0.30882147 0.090211466 0.12991127 -0.07840609 0.010225001 -0.17680025 -0.09290446 -0.09979292 -0.15954165 -0.13507251 0.060673483 -0.08217147 -0.0530217 0.075507104 -0.28056353 0.20698868 -0.04894912 -0.2552637 -0.038731486 0.285979 0.049680684 -0.0025378212 0.017845694 -0.015468936 0.009311008 -0.041051064 -0.07420137 -0.02203723 -0.07591438 0.011549389 0.06325191 0.21958555 -0.07711353 -0.009822749 -0.009007593 -0.0054588425 0.22406337 -0.23392504 0.023009717 -0.05817933 -0.031696387 0.009832798 -0.020809758 -0.033884697 -0.058167376 -0.08580085 0.038732752 -0.05402788 0.12993251 0.0065643764 0.19009456 -0.12162574 -0.03715172 -0.11811407 0.15691325 -0.12490968
knowledge -0.0294421 0.20275621 -0.02317799 0.12215778 -0.056696765 -0.013541593 -0.24075183 -0.21017846 0.13342056 0.13877167 -0.052332956 -0.046440057 0.025854496 -0.04491747 -0.14871104 0.16924152 -0.01522614 -0.090101086 -0.13717785 0.38347924 0.08309673 -0.31508446 0.03168659 0.11663077 0.11658298 0.028469179 0.24279161 0.025047215 -0.0008287109 0.01112882 0.12749876 -0.02327486 -0.03592556 -0.012085471 0.26135013 0.1510867 0.115826935 0.07384358 -0.24981864 -0.230537 -0.07909773 -0.038583923 -0.011432301 0.034985814 -0.35203636 0.111153364 0.1576056 -0.09805194 0.0058479104 -0.19336037 -0.12035515 -0.11408237 -0.19277109 -0.15591782 0.066658676 -0.09656741 -0.06672057 0.08627064 -0.3212963 0.24273388 -0.06055705 -0.30330706 -0.04183377 0.32004514 0.05422896 0.004312149 0.021228896 -0.017509017 0.008976182 -0.04765129 -0.08973105 -0.0296427 -0.08336463 0.023902668 0.06845815 0.25157914 -0.09015432 -0.0063290847 -0.020417027 -0.012780984 0.26265228 -0.26890987 0.025712173 -0.061819058 -0.031302206 0.0126334755 -0.027447717 -0.03483113 -0.07000539 -0.09853933 0.041210312 -0.053064864 0.15772595 0.0060956464 0.21188518 -0.14003111 -0.041905712 -0.14323594 0.1803022 -0.13352174
base -0.03283104 0.19041696 -0.016960086 0.11922213 -0.055603754 -0.012182597 -0.21823403 -0.18877366 0.119594775 0.12541848 -0.04679663 -0.050890416 0.024564277 -0.03929405 -0.13774855 0.15505946 -0.011946741 -0.08574269 -0.116762824 0.34937167 0.077966444 -0.28777453 0.031195676 0.10551048 0.112430856 0.030692864 0.21971479 0.025964132 0.0045545395 0.008664635 0.11776122 -0.027214475 -0.03227752 -0.0070012594 0.23803322 0.14231855 0.10429857 0.07348491 -0.2265876 -0.21265097 -0.07063253 -0.029703114 -0.018102465 0.029053563 -0.3267696 0.10199764 0.13927062 -0.082685836 0.010512026 -0.1853895 -0.102121286 -0.11300349 -0.17979191 -0.15175574 0.06618073 -0.092148885 -0.063881464 0.07774086 -0.2984157 0.21771555 -0.0539437 -0.27431402 -0.033371635 0.29667377 0.046426527 -0.0046809586 0.023741324 -0.015573573 0.009995764 -0.040578008 -0.08449868 -0.025959985 -0.07068186 0.014403773 0.0647936 0.22637656 -0.083625026 -0.009200566 -0.014873942 -0.006593828 0.2390972 -0.24910213 0.02725767 -0.0591544 -0.027253624 0.01410039 -0.029711472 -0.031325538 -0.0646734 -0.09202008 0.039959777 -0.05478386 0.14407663 0.012924791 0.19763705 -0.12830952 -0.04623592 -0.12868652 0.16169561 -0.12835185
south -0.0325596 0.1922745 -0.021749677 0.11283659 -0.056585185 -0.015598156 -0.21977764 -0.19187891 0.117726155 0.12222595 -0.044338748 -0.045090098 0.020869782 -0.040099498 -0.1350626 0.15168732 -0.008796985 -0.08135748 -0.11518857 0.34850147 0.08248443 -0.28533918 0.025281373 0.111338474 0.109693915 0.021467004 0.21988605 0.019970499 0.009414481 0.01084568 0.1105476 -0.017560145 -0.03739225 -0.0016206508 0.23337485 0.13679689 0.09775625 0.06429425 -0.21519409 -0.21068212 -0.074583404 -0.03651267 -0.019589463 0.029234875 -0.318824 0.09879884 0.14049415 -0.07936806 0.010087433 -0.18392117 -0.09730436 -0.110636294 -0.17702089 -0.14005136 0.067218974 -0.091328986 -0.055010922 0.078223355 -0.29184118 0.22060221 -0.056244966 -0.2709813 -0.03150535 0.29541007 0.05099054 -0.005584785 0.025186613 -0.019411998 0.0059829564 -0.04329609 -0.08514035 -0.027727831 -0.0691602 0.019420674 0.06073108 0.2307924 -0.08595653 -0.013737815 -0.01753844 -0.008345274 0.23099789 -0.24512205 0.01941257 -0.06256564 -0.03611529 0.022787338 -0.02976826 -0.030096285 -0.059596684 -0.08598658 0.041112777 -0.05060556 0.13226008 0.016268678 0.19031794 -0.12963057 -0.036869183 -0.12658207 0.16725715 -0.12889315
make -0.030720219 0.19202554 -0.022257717 0.12095311 -0.061229594 -0.015704865 -0.23277153 -0.2047362 0.1306372 0.13406654 -0.05181212 -0.05352739 0.02644423 -0.0468235 -0.14554156 0.16204478 -0.0073003545 -0.089793295 -0.12453857 0.37348637 0.07670202 -0.29973796 0.030105691 0.113912664 0.11561936 0.028121527 0.22811756 0.021306962 0.0019007075 0.005236348 0.118624 -0.027729591 -0.037690267 -0.003885686 0.2535697 0.14573187 0.1057591 0.06998046 -0.23636246 -0.22774097 -0.07665239 -0.028996723 -0.009617061 0.037702072 -0.34197816 0.10165811 0.14951396 -0.09353547 0.00060672575 -0.19446838 -0.11041884 -0.113980696 -0.17864141 -0.15060489 0.06546369 -0.09066323 -0.05992667 0.07527334 -0.30487633 0.22774655 -0.05465706 -0.28882498 -0.037140694 0.30761907 0.05469619 0.0035328788 0.026837483 -0.0120831635 0.011313578 -0.04406251 -0.08492333 -0.031122714 -0.07938783 0.015348007 0.069901295 0.23600242 -0.08690959 -0.0076927445 -0.009249742 -0.006599368 0.24808395 -0.26028988 0.024360767 -0.06584589 -0.031175407 0.021625487 -0.024589676 -0.033418246 -0.0738197 -0.09110904 0.04528935 -0.050312188 0.14915891 0.015607499 0.2014183 -0.13346286 -0.04178146 -0.12951654 0.17321095 -0.13141751
strategy -0.027289141 0.18369782 -0.011722004 0.11203729 -0.058207978 -0.015375417 -0.21461025 -0.18709786 0.1214848 0.12508519 -0.043386348 -0.04158571 0.019820303 -0.03790468 -0.13367024 0.14290786 -0.0045440686 -0.076423496 -0.12001361 0.34549952 0.07594695 -0.28322664 0.023921322 0.102457836 0.110192664 0.026529914 0.21051352 0.02443429 0.00016213031 0.011869129 0.11803412 -0.026723448 -0.029244652 -0.00048766387 0.23423263 0.13947102 0.09487893 0.06998457 -0.21398784 -0.21431981 -0.07402805 -0.02782755 -0.015294607 0.036155295 -0.3184298 0.09437261 0.14265409 -0.080815755 0.0020660197 -0.1795737 -0.09645424 -0.1113045 -0.16837843 -0.1470674 0.057427596 -0.09049297 -0.05990787 0.074462056 -0.28359163 0.21782127 -0.04939691 -0.27499244 -0.035809353 0.28558487 0.043153424 -0.00063914026 0.0196971 -0.019374236 0.002317742 -0.042937737 -0.08385844 -0.026628258 -0.07396384 0.01498506 0.059181366 0.21968266 -0.07865985 -0.00746825 -0.017131602 -0.0148274945 0.22973251 -0.2402129 0.01979419 -0.05929584 -0.025883988 0.011925451 -0.026571918 -0.031837 -0.059387952 -0.08806824 0.038144577 -0.048670992 0.13370559 0.008640609 0.18544172 -0.12578472 -0.04039644 -0.12070811 0.15969062 -0.12004661
